svm_type c_svc
kernel_type rbf
gamma 0.001953125
nr_class 10
total_sv 1540
rho -7.387757953054424 -3.633863391163471 -5.18434836858519 -6.246114344852911 -15.494099623970495 -9.526770109147387 -7.314980569642148 -8.370429314436103 -3.421862745845403 2.859316181576449 2.581202000843807 2.406188015010277 -6.036729070929878 2.8563753783082824 2.5071678715555152 -2.5648630481820835 4.974626235937288 -0.5283223029569318 -5.816116862177946 -11.205140940866697 -4.559911425286636 -2.5688672484360566 -3.960802615926484 2.0380514552990965 -0.6821280630339103 -7.900114680559992 0.23410044422232917 1.0613522150854713 -3.213650888531126 3.169624105814294 -14.587102537537822 -1.7479474080698159 -0.11138496203623995 -4.581396070548084 3.5640100746886145 9.87664183038539 8.965928906916243 6.850808667447349 11.678304431334888 1.6839437601291152 -4.55073723580033 1.2682970197758803 -3.6207513279389887 5.389026658441651 3.5630002856077896
label 1 2 3 4 5 6 7 8 9 10
nr_sv 168 140 149 120 152 181 169 149 172 140
SV
128.0 128.0 128.0 128.0 128.0 128.0 127.23885686009912 128.0 0.0 19:0.164017 82:0.217726 95:0.381503 378:0.517754 407:0.217726 649:0.164017 791:0.164017 940:0.381503 1057:0.381503 1059:1.0 1254:0.164017 1474:0.381503 1538:0.164017 1625:0.381503 1753:0.164017 1792:0.381503 
0.0 0.0 0.0 0.0 0.0 10.528014749624324 47.94292665667074 0.0 46.4553201977559 7:0.112944 9:0.125211 16:0.12364 27:0.135968 28:0.153976 40:0.365482 53:0.197124 58:0.657448 67:0.417936 69:1.0 95:0.335025 98:0.241963 156:0.234479 166:0.819797 177:0.225042 181:1.0 190:0.616751 226:0.657448 376:0.234479 427:0.657448 464:0.112944 492:0.365482 520:0.135968 546:0.153976 687:0.657448 938:0.657448 940:0.335025 973:0.225042 1057:0.335025 1059:0.878173 1073:0.657448 1131:0.225042 1139:0.365482 1144:0.657448 1147:0.321489 1157:0.112944 1230:1.0 1239:0.12364 1291:0.153976 1293:0.135968 1297:0.12364 1298:0.365482 1299:0.112944 1301:0.135968 1307:0.616751 1335:0.153976 1346:0.657448 1390:0.225042 1411:1.0 1441:0.234479 1474:0.335025 1494:0.153976 1519:0.112944 1568:0.657448 1594:0.225042 1625:0.335025 1685:0.112944 1703:0.365482 1722:0.153976 1792:0.335025 1817:0.321489 1855:0.12364 1859:0.657448 
0.0 0.0 0.0 0.0 0.0 49.909520068702065 83.1340951971745 0.0 0.0 4:0.167279 7:0.218137 14:0.38537 16:0.238796 24:0.195612 25:0.927015 58:0.846518 85:0.591503 162:0.361111 226:0.846518 402:0.167279 427:0.846518 464:0.218137 687:0.846518 913:0.617647 938:0.846518 1073:0.846518 1144:0.846518 1157:0.218137 1168:0.167279 1239:0.238796 1246:0.361111 1266:0.591503 1297:0.238796 1299:0.218137 1303:0.167279 1346:0.846518 1399:0.591503 1519:0.218137 1568:0.846518 1600:0.167279 1602:0.38537 1614:0.195612 1685:0.218137 1724:0.167279 1855:0.238796 1859:0.846518 
0.0 0.0 14.65327266601849 0.0 3.5053678791107243 0.0 0.0 0.0 108.17742271726924 7:0.089 12:0.145333 20:0.435429 24:0.0798095 37:0.226222 40:0.096 63:0.354 132:0.132444 170:0.165 176:0.324 178:0.756 377:0.202 458:0.165 464:0.089 492:0.096 639:0.226222 674:0.411 679:0.370286 711:0.258 723:0.182 962:0.370286 975:0.411 1139:0.096 1157:0.089 1202:0.411 1267:0.165 1298:0.096 1299:0.089 1427:0.354 1438:0.165 1469:0.435429 1519:0.089 1614:0.0798095 1640:0.165 1681:0.756 1685:0.089 1691:0.132444 1692:0.247579 1703:0.096 1710:0.324 1735:0.4168 1736:0.544 1738:0.435429 1778:0.165 1853:0.226222 1854:0.182 
105.7932613785986 84.48119281366044 51.32270761582213 97.99525473651398 125.3678217121139 49.16867975597062 12.454978824290814 121.42166472161365 74.53722202451979 3:0.0626551 4:0.0846774 5:0.394159 19:0.140819 47:0.115063 60:0.0686518 108:0.0851307 111:0.132134 114:0.130273 116:0.123139 127:0.0554177 139:0.213399 187:0.0769231 292:0.115063 331:0.0686518 343:0.0851307 402:0.0846774 413:0.0554177 486:0.0686518 549:0.123139 609:0.115063 610:0.123139 649:0.140819 660:0.0686518 726:0.0851307 750:0.331266 791:0.140819 822:0.331266 828:0.0686518 1017:0.331266 1031:0.0686518 1086:0.123139 1091:0.115063 1112:0.0851307 1168:0.0846774 1195:0.327543 1217:0.0686518 1254:0.140819 1286:0.115063 1303:0.0846774 1313:0.0769231 1328:0.0686518 1429:0.115063 1433:0.0626551 1518:0.0554177 1538:0.140819 1554:0.0686518 1562:0.0626551 1586:1.0 1590:0.394159 1600:0.0846774 1690:0.123139 1694:0.0554177 1717:0.331266 1724:0.0846774 1752:0.0626551 1753:0.140819 1848:0.0686518 
0.0 14.17242547654373 0.0 0.0 0.0 0.0 0.0 0.0 0.0 1:0.764245 2:0.482042 7:0.168242 18:0.500354 27:0.0506346 29:0.236085 40:0.136106 47:0.0876567 54:0.181474 60:0.0522999 62:0.077656 107:0.0548204 113:0.310019 116:0.375236 127:0.042218 139:0.162571 140:0.294896 168:0.135614 184:0.511106 187:0.0586011 222:0.15879 243:0.181474 292:0.0876567 331:0.0522999 413:0.042218 446:0.511106 464:0.168242 468:0.135614 470:0.0548204 486:0.0522999 492:0.136106 520:0.0506346 528:0.213611 533:0.130435 549:0.375236 592:0.0548204 609:0.0876567 610:0.375236 660:0.0522999 671:0.077656 723:0.0860113 797:0.0548204 828:0.0522999 854:0.135614 855:0.782609 920:0.168242 929:0.511106 952:0.0548204 1031:0.0522999 1040:0.511106 1053:0.135614 1061:0.0389887 1086:0.375236 1091:0.0876567 1139:0.136106 1155:0.0548204 1157:0.168242 1217:0.0522999 1286:0.0876567 1293:0.0506346 1298:0.136106 1299:0.168242 1301:0.0506346 1313:0.0586011 1328:0.0522999 1342:0.482042 1354:0.0548204 1383:0.236085 1429:0.0876567 1443:0.511106 1463:0.181474 1518:0.042218 1519:0.168242 1554:0.0522999 1583:0.500354 1599:0.389414 1606:0.782609 1607:0.511106 1615:0.130435 1627:0.0548204 1651:0.135614 1685:0.168242 1690:0.375236 1694:0.042218 1703:0.136106 1756:0.782609 1764:0.168242 1787:0.0389887 1824:0.0548204 1837:0.181474 1848:0.0522999 1854:0.0860113 
0.0 9.241697233641826 0.0 0.0 0.0 0.0 0.0 0.0 0.0 4:0.149671 7:0.0975877 15:0.517895 17:0.21345 20:0.0795739 25:0.414717 26:0.276316 47:0.406758 59:0.400585 60:0.121345 65:0.107769 85:0.26462 139:0.377193 184:0.395285 187:0.135965 292:0.406758 331:0.121345 402:0.149671 446:0.395285 464:0.0975877 486:0.121345 526:0.144006 591:0.107769 609:0.406758 635:0.144006 660:0.121345 695:0.21345 783:0.107769 828:0.121345 830:0.144006 929:0.395285 982:0.144006 1031:0.121345 1040:0.395285 1061:0.0904605 1091:0.406758 1157:0.0975877 1168:0.149671 1217:0.121345 1266:0.26462 1286:0.406758 1289:0.21345 1292:0.107769 1299:0.0975877 1303:0.149671 1313:0.135965 1328:0.121345 1349:0.21345 1353:0.517895 1371:0.377193 1372:0.276316 1379:0.107769 1399:0.26462 1429:0.406758 1443:0.395285 1469:0.0795739 1517:0.276316 1519:0.0975877 1546:0.144006 1554:0.121345 1600:0.149671 1605:0.583333 1607:0.395285 1623:0.107769 1685:0.0975877 1724:0.149671 1738:0.0795739 1760:0.144006 1787:0.0904605 1833:0.276316 1848:0.121345 
0.0 11.626762039156809 42.11240233511433 0.0 0.0 17.88402737937099 30.408463293431648 12.677857347685178 0.0 18:0.157271 21:0.477124 29:0.408134 36:0.781409 46:0.230937 47:0.606149 51:0.522876 102:1.0 135:0.401961 139:0.562091 187:0.202614 292:0.606149 609:0.606149 626:0.401961 688:0.70207 694:0.230937 1061:0.134804 1091:0.606149 1286:0.606149 1305:0.23366 1313:0.202614 1319:0.401961 1339:0.211329 1383:0.408134 1429:0.606149 1437:0.230937 1583:0.157271 1647:0.230937 1787:0.134804 
11.59462175992257 0.0 0.0 0.0 1.5407297292543305 0.0 56.82550773636241 0.0 54.246967455789715 4:0.152344 5:0.0675366 8:0.335884 10:0.329365 12:0.324405 29:0.185847 31:0.066163 43:0.494318 51:0.238095 54:1.0 55:0.1875 60:0.0823413 71:0.300595 86:0.18006 106:0.280844 139:0.255952 145:0.421131 156:0.137477 187:0.0922619 243:1.0 331:0.0823413 337:0.329365 376:0.137477 399:0.335884 402:0.152344 486:0.0823413 514:0.329365 558:0.066163 572:0.066163 577:0.494318 581:0.329365 660:0.0823413 824:0.335884 828:0.0823413 880:0.275 894:0.18006 896:0.329365 941:0.066163 974:0.280844 1031:0.0823413 1168:0.152344 1199:0.18006 1217:0.0823413 1253:0.335884 1302:0.335884 1303:0.152344 1308:0.329365 1313:0.0922619 1317:0.066163 1328:0.0823413 1330:0.1875 1374:0.494318 1383:0.185847 1441:0.137477 1450:0.18006 1462:0.300595 1463:1.0 1479:0.335884 1503:0.18006 1508:0.329365 1554:0.0823413 1590:0.0675366 1600:0.152344 1628:0.275 1696:0.335884 1699:0.264881 1724:0.152344 1748:0.1875 1784:0.329365 1795:0.143282 1803:0.18006 1837:1.0 1848:0.0823413 1850:0.0958333 1857:0.066163 
0.0 0.0 0.0 33.234907915177466 0.0 0.0 0.0 0.0 0.0 2:0.233232 3:0.46189 10:0.0843496 16:0.0742596 17:0.148374 35:0.0407102 43:0.168792 46:0.215447 47:0.424119 51:0.243902 64:1.0 65:0.0749129 78:0.45122 83:0.460643 90:0.14126 113:1.0 115:0.118902 292:0.424119 337:0.0843496 346:0.240854 415:0.0407102 435:0.14126 514:0.0843496 577:0.168792 581:0.0843496 591:0.0749129 606:0.0716463 609:0.424119 694:0.215447 695:0.148374 711:0.393293 719:0.118902 729:0.163618 747:0.460643 783:0.0749129 786:1.0 795:0.118902 815:0.163618 864:0.14126 896:0.0843496 1014:0.138211 1015:0.240854 1027:0.0716463 1091:0.424119 1117:0.163618 1164:0.14126 1239:0.0742596 1286:0.424119 1289:0.148374 1292:0.0749129 1297:0.0742596 1308:0.0843496 1342:0.233232 1349:0.148374 1355:0.0838415 1374:0.168792 1379:0.0749129 1423:0.14126 1429:0.424119 1433:0.46189 1437:0.215447 1444:0.118902 1500:0.14126 1508:0.0843496 1550:0.0407102 1562:0.46189 1591:0.163618 1616:1.0 1623:0.0749129 1647:0.215447 1675:0.138211 1727:1.0 1752:0.46189 1776:0.460643 1784:0.0843496 1851:0.163618 1855:0.0742596 
28.626423838142983 54.47509209459123 16.821001080732408 48.08452367670399 32.61140965840355 0.0 35.91726111558433 21.05759474324896 0.0 3:0.063924 4:0.215981 10:0.210127 15:0.597873 24:0.101025 30:0.0357409 33:1.0 54:0.121519 56:0.0676311 143:0.17519 149:0.0618445 155:0.336709 243:0.121519 301:0.0676311 337:0.210127 402:0.215981 495:0.0618445 513:1.0 514:0.210127 581:0.210127 621:0.0676311 672:0.0357409 715:0.17519 834:0.140506 841:0.346835 846:1.0 885:0.0676311 896:0.210127 902:0.0618445 1034:0.140506 1051:0.0618445 1069:0.0676311 1156:0.0676311 1168:0.215981 1303:0.215981 1308:0.210127 1333:1.0 1352:0.0676311 1353:0.597873 1371:0.326582 1431:0.17519 1433:0.063924 1460:0.0357409 1463:0.121519 1470:0.0618445 1508:0.210127 1533:1.0 1562:0.063924 1600:0.215981 1613:0.0618445 1614:0.101025 1644:0.0676311 1724:0.215981 1752:0.063924 1758:0.0676311 1784:0.210127 1837:0.121519 1856:0.549367 
0.0 0.0 0.0 85.08413767007067 0.0 0.0 0.0 0.0 0.0 3:0.0654145 4:0.0442034 5:0.0587884 10:0.215026 14:0.3055 15:0.152953 17:0.252159 19:0.0735104 21:0.189119 25:0.122481 26:0.163212 40:0.0621762 41:0.0832254 60:0.0716753 65:0.127313 77:0.912435 79:0.382124 83:0.195714 111:0.137953 112:0.18696 119:0.0968912 171:0.332902 179:0.101036 184:0.233484 331:0.0716753 337:0.215026 368:0.0968912 402:0.0442034 414:0.0832254 446:0.233484 486:0.0716753 492:0.0621762 514:0.215026 530:0.18696 581:0.215026 591:0.127313 649:0.0735104 656:0.172835 660:0.0716753 695:0.252159 722:0.101036 747:0.195714 755:0.139896 756:0.102809 760:0.0935881 768:0.0557612 783:0.127313 791:0.0735104 817:0.101036 828:0.0716753 866:0.912435 877:0.18696 896:0.215026 911:0.446336 929:0.233484 992:0.139896 1014:0.117444 1031:0.0716753 1033:0.172835 1040:0.233484 1046:0.0968912 1058:0.102809 1101:0.18696 1139:0.0621762 1168:0.0442034 1217:0.0716753 1221:0.18696 1228:0.101036 1254:0.0735104 1270:0.367876 1289:0.252159 1292:0.127313 1298:0.0621762 1303:0.0442034 1308:0.215026 1328:0.0716753 1349:0.252159 1353:0.152953 1372:0.163212 1379:0.127313 1398:0.101036 1422:0.18696 1433:0.0654145 1440:0.367876 1443:0.233484 1452:0.0832254 1498:0.139896 1508:0.215026 1510:0.0968912 1517:0.163212 1524:0.102809 1538:0.0735104 1554:0.0716753 1562:0.0654145 1571:0.18696 1590:0.0587884 1600:0.0442034 1602:0.3055 1607:0.233484 1623:0.127313 1648:0.912435 1652:0.0935881 1662:0.101036 1675:0.117444 1684:0.242228 1703:0.0621762 1724:0.0442034 1737:0.23057 1749:0.0968912 1752:0.0654145 1753:0.0735104 1776:0.195714 1784:0.215026 1809:0.101036 1833:0.163212 1848:0.0716753 
3.0904287545507607 16.49031345802826 2.5939004840170705 15.627167995033611 0.0 41.273043153654825 0.0 0.0 13.898150729107329 3:0.051848 4:0.0350359 6:0.0359343 8:0.23174 15:0.242464 22:0.165914 31:0.0912968 33:0.190844 44:0.126723 50:0.183094 54:0.985626 57:0.791581 60:0.227242 77:0.197237 81:0.959959 85:0.123888 97:0.13963 111:0.109343 124:1.0 138:0.125713 146:0.081337 183:0.560868 243:0.985626 331:0.227242 333:1.0 347:0.081337 399:0.23174 402:0.0350359 472:0.959959 486:0.227242 513:0.190844 558:0.0912968 572:0.0912968 596:0.081337 630:0.13963 636:0.394251 660:0.227242 683:0.125713 732:0.959959 802:0.125713 824:0.23174 828:0.227242 846:0.190844 866:0.197237 906:0.959959 932:0.13963 941:0.0912968 954:0.125713 1031:0.227242 1043:0.394251 1061:0.0423511 1165:0.959959 1168:0.0350359 1183:0.13963 1205:0.125713 1217:0.227242 1252:0.165914 1253:0.23174 1266:0.123888 1294:0.0459959 1302:0.23174 1303:0.0350359 1317:0.0912968 1328:0.227242 1333:0.190844 1336:0.165914 1337:0.560868 1353:0.242464 1358:0.0724286 1376:0.13963 1382:0.183094 1399:0.123888 1400:0.959959 1408:0.125713 1409:0.081337 1415:0.340862 1433:0.051848 1463:0.985626 1479:0.23174 1531:0.183094 1533:0.190844 1534:0.13963 1541:0.0359343 1554:0.227242 1557:0.959959 1562:0.051848 1569:0.081337 1581:0.125713 1600:0.0350359 1648:0.197237 1696:0.23174 1711:0.125713 1713:0.0359343 1716:0.13963 1724:0.0350359 1752:0.051848 1787:0.0423511 1798:0.340862 1806:0.165914 1822:0.172306 1837:0.985626 1843:0.0459959 1848:0.227242 1857:0.0912968 
0.0 0.0 0.0 0.0 0.0 0.0 128.0 5.060864196107443 128.0 2:0.117241 6:0.16092 7:0.358046 8:0.0518883 17:0.167816 20:0.0417077 24:0.0229338 35:0.0153482 39:0.0849691 40:0.0275862 43:0.254545 44:0.141872 56:0.0921182 112:0.0829502 115:0.0448276 116:0.11408 123:0.0321839 132:0.0761175 133:0.0288633 136:0.383908 143:0.15908 145:0.162644 153:0.325862 169:0.0344828 179:0.0448276 182:0.0701149 183:0.313957 202:0.0701149 288:0.0533662 301:0.0921182 399:0.0518883 415:0.0153482 422:0.0288633 432:0.0321839 464:0.358046 492:0.0275862 530:0.0829502 549:0.11408 577:0.254545 610:0.11408 621:0.0921182 631:0.0288633 689:0.0533662 695:0.167816 715:0.15908 719:0.0448276 722:0.0448276 749:0.168391 782:0.0321839 795:0.0448276 817:0.0448276 824:0.0518883 859:0.0288633 877:0.0829502 885:0.0921182 900:0.0533662 920:0.204598 945:0.0533662 985:0.168391 1036:0.0321839 1069:0.0921182 1086:0.11408 1088:0.0288633 1101:0.0829502 1108:0.0921309 1139:0.0275862 1146:0.0533662 1156:0.0921182 1157:0.358046 1182:0.0321839 1190:0.0288633 1221:0.0829502 1228:0.0448276 1253:0.0518883 1285:0.260345 1289:0.167816 1298:0.0275862 1299:0.358046 1302:0.0518883 1337:0.313957 1342:0.117241 1349:0.167816 1352:0.0921182 1357:0.0321839 1374:0.254545 1393:0.040613 1394:0.0288633 1398:0.0448276 1403:0.0344828 1420:0.0849691 1421:0.0701149 1422:0.0829502 1431:0.15908 1444:0.0448276 1469:0.0417077 1479:0.0518883 1489:0.0288633 1519:0.358046 1541:0.16092 1550:0.0153482 1571:0.0829502 1611:0.325862 1614:0.0229338 1624:0.0321839 1644:0.0921182 1662:0.0448276 1676:0.13659 1685:0.358046 1690:0.11408 1691:0.0761175 1696:0.0518883 1703:0.0275862 1713:0.16092 1733:0.325862 1735:0.11977 1738:0.0417077 1758:0.0921182 1764:0.204598 1765:0.148659 1809:0.0448276 1815:0.0288633 1830:0.260345 1836:0.0321839 
0.0 0.0 0.0 0.0 0.0 3.0101919035640226 0.0 0.0 7.162990642069311 2:0.294798 9:0.0475273 12:0.140013 20:0.244701 21:0.421965 33:0.0447694 35:0.0514564 47:0.357382 51:0.308285 52:0.209744 64:0.0902835 65:0.0473438 74:0.0679629 88:0.485549 90:0.446371 94:0.0900083 106:1.0 111:0.102601 116:0.0956166 127:0.0430315 130:0.227842 132:0.0637979 147:0.11368 161:0.0934489 170:0.0794798 171:0.247592 176:0.572254 184:0.173651 292:0.357382 413:0.0430315 415:0.0514564 435:0.446371 446:0.173651 458:0.0794798 513:0.0447694 549:0.0956166 591:0.0473438 609:0.357382 610:0.0956166 783:0.0473438 786:0.0902835 846:0.0447694 864:0.446371 929:0.173651 974:1.0 1040:0.173651 1086:0.0956166 1091:0.357382 1098:0.209744 1164:0.446371 1184:0.0679629 1234:0.209744 1267:0.0794798 1286:0.357382 1292:0.0473438 1333:0.0447694 1342:0.294798 1368:0.485549 1371:0.165703 1379:0.0473438 1387:0.0900083 1423:0.446371 1429:0.357382 1438:0.0794798 1443:0.173651 1466:0.0496245 1469:0.244701 1500:0.446371 1518:0.0430315 1522:0.209744 1533:0.0447694 1550:0.0514564 1560:0.0679629 1607:0.173651 1616:0.0902835 1619:0.0496245 1623:0.0473438 1630:0.11368 1640:0.0794798 1671:0.0995504 1682:0.117258 1690:0.0956166 1691:0.0637979 1692:0.119258 1694:0.0430315 1701:0.485549 1709:0.11368 1710:0.572254 1715:0.0900083 1721:0.0496245 1726:0.209744 1727:0.0902835 1738:0.244701 1755:0.0825237 1770:0.100193 1778:0.0794798 
0.0 57.25694731182806 13.9903067966329 27.5428826735206 0.0 7.234364476544402 31.65287417761144 0.0 18.824856260703314 3:0.0598341 10:0.0655608 12:0.0860979 18:0.11404 42:0.46327 58:0.204609 60:0.0655608 90:0.329384 95:0.156398 103:0.0957346 122:0.0990521 142:0.190758 157:0.162717 175:0.216825 181:0.18673 184:0.213566 226:0.204609 294:0.216825 331:0.0655608 337:0.0655608 406:0.0990521 419:0.0957346 427:0.204609 435:0.329384 446:0.213566 486:0.0655608 505:0.190758 514:0.0655608 539:0.243286 562:0.341232 571:0.287915 581:0.0655608 642:0.0990521 660:0.0655608 687:0.204609 716:0.0957346 751:0.309953 794:0.682464 810:0.190758 828:0.0655608 861:0.0957346 864:0.329384 886:0.341232 891:0.130332 892:0.162322 896:0.0655608 922:0.143128 923:0.309953 929:0.213566 938:0.204609 940:0.156398 1005:0.243286 1031:0.0655608 1039:0.682464 1040:0.213566 1057:0.156398 1073:0.204609 1083:0.190758 1099:0.0957346 1144:0.204609 1164:0.329384 1217:0.0655608 1219:0.0957346 1222:0.194313 1230:0.18673 1260:0.243286 1261:0.0990521 1280:0.581161 1308:0.0655608 1328:0.0655608 1346:0.204609 1381:0.0957346 1417:0.190758 1423:0.329384 1433:0.0598341 1443:0.213566 1447:0.287915 1453:0.0990521 1474:0.156398 1500:0.329384 1508:0.0655608 1554:0.0655608 1562:0.0598341 1568:0.204609 1573:0.0990521 1574:0.341232 1578:0.190758 1583:0.11404 1597:0.130332 1607:0.213566 1625:0.156398 1632:0.0586697 1643:0.682464 1657:0.0957346 1689:0.0586697 1741:0.682464 1751:1.0 1752:0.0598341 1763:0.162322 1775:0.341232 1784:0.0655608 1792:0.156398 1802:0.130332 1808:0.0787678 1813:0.0957346 1823:0.161137 1848:0.0655608 1859:0.204609 
0.0 6.312355985819247 0.0 0.0 0.0 0.0 0.0 0.0 0.0 1:0.0123033 3:0.230523 4:0.0415399 7:0.0135423 9:0.0300264 10:0.0336782 12:0.0884561 14:0.0239243 17:0.0592412 19:0.120892 21:0.0444309 24:0.0607194 30:0.0343704 35:0.097526 39:0.224964 47:0.366899 52:0.0662551 56:0.0162595 64:0.427789 71:0.184419 72:0.119294 73:0.0439962 86:0.0736458 87:0.197481 94:0.170594 95:0.0803408 99:0.0747954 103:0.0245892 105:0.0574733 106:0.0574337 107:0.0176506 108:0.18793 113:0.199635 115:0.0237371 119:0.0113816 123:0.051126 124:0.0370511 125:0.0850071 133:0.0458511 143:0.0421181 144:0.0959917 163:0.0247734 172:0.065003 179:0.0474741 186:0.0550822 187:0.0188679 190:0.02465 192:0.0432136 193:0.0444309 288:0.0282584 292:0.366899 301:0.0162595 324:1.0 333:0.0370511 337:0.0336782 343:0.18793 361:0.0574733 368:0.0113816 402:0.0415399 415:0.097526 419:0.0245892 422:0.0458511 432:0.051126 442:0.0456482 464:0.0135423 465:0.0663421 470:0.0176506 510:0.0620816 512:0.0959917 514:0.0336782 554:0.0574733 573:0.0383445 581:0.0336782 583:0.0574733 590:0.0445831 592:0.0176506 609:0.366899 621:0.0162595 631:0.0458511 649:0.120892 672:0.0343704 674:0.062538 689:0.0282584 695:0.0592412 715:0.0421181 716:0.0245892 719:0.0237371 722:0.0474741 726:0.18793 742:0.0747954 777:0.0574733 782:0.051126 785:0.084297 786:0.427789 791:0.120892 795:0.0237371 797:0.0176506 812:0.0486914 817:0.0474741 818:0.0353013 855:0.0419963 859:0.0458511 861:0.0245892 876:0.0456482 880:0.0562386 881:0.0436194 885:0.0162595 887:0.0620816 891:0.0334754 894:0.0736458 896:0.0336782 900:0.0282584 907:0.0217707 927:0.0541692 940:0.0803408 945:0.0282584 952:0.0176506 957:0.0959917 972:0.197481 974:0.0574337 975:0.062538 1001:0.065003 1020:0.0456482 1022:0.0541692 1035:0.0584297 1036:0.051126 1046:0.0113816 1057:0.0803408 1069:0.0162595 1088:0.0458511 1091:0.366899 1093:0.0620816 1095:0.0383445 1098:0.0662551 1099:0.0245892 1112:0.18793 1146:0.0282584 1155:0.0176506 1156:0.0162595 1157:0.0135423 1160:0.0959917 1168:0.0415399 1169:0.197481 1176:0.0383445 1182:0.051126 1190:0.0458511 1199:0.0736458 1202:0.062538 1219:0.0245892 1228:0.0474741 1234:0.0662551 1254:0.120892 1283:0.065003 1286:0.366899 1289:0.0592412 1294:0.0272672 1299:0.0135423 1303:0.0415399 1307:0.02465 1308:0.0336782 1313:0.0188679 1349:0.0592412 1352:0.0162595 1354:0.0176506 1357:0.051126 1381:0.0245892 1387:0.170594 1394:0.0458511 1398:0.0474741 1406:0.0574733 1410:0.0550822 1414:0.065003 1420:0.224964 1429:0.366899 1431:0.0421181 1433:0.230523 1444:0.0237371 1450:0.0736458 1460:0.0343704 1462:0.184419 1468:0.0663421 1474:0.0803408 1489:0.0458511 1499:0.0574733 1503:0.0736458 1508:0.0336782 1510:0.0113816 1519:0.0135423 1522:0.0662551 1538:0.120892 1550:0.097526 1561:0.0486914 1562:0.230523 1597:0.0334754 1600:0.0415399 1602:0.0239243 1606:0.0419963 1614:0.0607194 1616:0.427789 1624:0.051126 1625:0.0803408 1627:0.0176506 1628:0.0562386 1639:0.0959917 1644:0.0162595 1657:0.0245892 1660:0.0663421 1662:0.0474741 1679:0.0247734 1685:0.0135423 1707:0.0436194 1715:0.170594 1724:0.0415399 1726:0.0662551 1727:0.427789 1736:0.0413877 1747:0.0541692 1749:0.0113816 1752:0.230523 1753:0.120892 1756:0.0419963 1758:0.0162595 1772:0.325015 1784:0.0336782 1792:0.0803408 1794:0.0439962 1802:0.0334754 1803:0.0736458 1807:0.0850071 1809:0.0474741 1813:0.0245892 1815:0.0458511 1819:0.065003 1824:0.0176506 1836:0.051126 1843:0.0272672 
28.57884635707344 12.169617989999406 22.61153315138642 61.42645970623723 128.0 128.0 116.9179300099174 56.463077547753855 94.60133276671162 4:0.0262097 7:0.136713 19:0.13076 35:0.0615343 41:0.0493472 47:0.0712294 55:0.0967742 60:0.0849974 64:0.0719772 87:0.166135 94:0.0717577 108:0.2108 117:0.0521542 125:0.214542 131:0.0754085 180:0.0407066 188:0.159754 190:0.186636 193:0.0373784 288:0.0713189 292:0.0712294 331:0.0849974 343:0.2108 402:0.0262097 414:0.0493472 415:0.0615343 439:0.0754085 464:0.136713 486:0.0849974 539:0.078853 609:0.0712294 623:0.159754 649:0.13076 660:0.0849974 674:0.157834 679:0.284398 689:0.0713189 726:0.2108 769:0.0754085 786:0.0719772 791:0.13076 828:0.0849974 860:0.0407066 872:0.050493 889:0.159754 900:0.0713189 944:0.0407066 945:0.0713189 946:0.0754085 962:0.284398 972:0.166135 975:0.157834 1005:0.078853 1031:0.0849974 1048:0.159754 1091:0.0712294 1112:0.2108 1125:0.0407066 1141:0.0337942 1146:0.0713189 1153:0.159754 1157:0.136713 1161:0.185868 1168:0.0262097 1169:0.166135 1202:0.157834 1217:0.0849974 1241:0.0754085 1254:0.13076 1260:0.078853 1285:0.231951 1286:0.0712294 1299:0.136713 1303:0.0262097 1307:0.186636 1309:0.0617853 1328:0.0849974 1329:0.0337942 1330:0.0967742 1387:0.0717577 1391:0.050493 1401:0.0754085 1429:0.0712294 1452:0.0493472 1461:0.167435 1481:0.0521542 1506:0.0754085 1519:0.136713 1538:0.13076 1550:0.0615343 1554:0.0849974 1564:0.0407066 1600:0.0262097 1616:0.0719772 1649:0.167435 1685:0.136713 1715:0.0717577 1724:0.0262097 1727:0.0719772 1743:0.050493 1748:0.0967742 1753:0.13076 1772:0.410138 1796:0.0754085 1807:0.214542 1830:0.231951 1848:0.0849974 
0.0 95.04679661356101 0.0 0.0 0.0 0.0 90.58104224466337 0.0 40.147644302373976 6:0.28 26:0.168 27:1.0 41:0.0856667 58:0.115126 74:0.470303 133:0.200889 170:0.11 175:0.0813333 226:0.115126 294:0.0813333 414:0.0856667 422:0.200889 427:0.115126 458:0.11 520:1.0 631:0.200889 687:0.115126 859:0.200889 891:0.146667 938:0.115126 993:0.0865882 1073:0.115126 1088:0.200889 1144:0.115126 1184:0.470303 1190:0.200889 1235:0.0865882 1267:0.11 1293:1.0 1301:1.0 1346:0.115126 1372:0.168 1384:0.0865882 1394:0.200889 1438:0.11 1452:0.0856667 1489:0.200889 1517:0.168 1541:0.28 1560:0.470303 1568:0.115126 1597:0.146667 1638:0.0865882 1640:0.11 1713:0.28 1777:0.0865882 1778:0.11 1802:0.146667 1815:0.200889 1816:0.410667 1833:0.168 1850:0.0858667 1859:0.115126 
23.31903013279457 17.52362416566156 11.071034178343384 38.51638556194231 108.78290507048347 40.4485343687613 0.0 51.36818473049827 0.0 10:0.111111 21:0.293173 58:0.173383 119:0.150201 149:0.0981067 226:0.173383 332:0.325301 337:0.111111 368:0.150201 385:0.49861 404:0.432128 427:0.173383 445:0.243641 466:0.320711 495:0.0981067 514:0.111111 537:0.325301 581:0.111111 674:0.825301 679:0.743546 687:0.173383 855:0.277108 896:0.111111 902:0.0981067 938:0.173383 962:0.743546 975:0.825301 1046:0.150201 1051:0.0981067 1065:0.49861 1073:0.173383 1144:0.173383 1202:0.825301 1308:0.111111 1346:0.173383 1470:0.0981067 1508:0.111111 1510:0.150201 1526:0.49861 1544:0.202811 1552:0.325301 1568:0.173383 1606:0.277108 1613:0.0981067 1749:0.150201 1756:0.277108 1784:0.111111 1859:0.173383 
0.0 5.867233941314829 9.413675311181784 0.0 0.0 0.0 0.0 0.0 15.48876793412704 10:0.133655 58:0.208562 60:0.133655 64:0.226363 77:0.154677 89:0.480742 97:0.492754 116:0.239734 170:0.199275 179:0.188406 184:0.435386 226:0.208562 283:0.347826 331:0.133655 337:0.133655 427:0.208562 438:0.480742 446:0.435386 458:0.199275 486:0.133655 514:0.133655 549:0.239734 568:1.0 574:0.304348 581:0.133655 595:0.141955 597:0.347826 610:0.239734 630:0.492754 633:0.618357 660:0.133655 670:0.480742 687:0.208562 710:0.835749 722:0.188406 752:1.0 786:0.226363 817:0.188406 828:0.133655 866:0.154677 883:0.480742 896:0.133655 907:0.345596 929:0.435386 932:0.492754 938:0.208562 960:0.480742 1031:0.133655 1040:0.435386 1060:0.507246 1073:0.208562 1086:0.239734 1144:0.208562 1183:0.492754 1217:0.133655 1223:0.480742 1228:0.188406 1267:0.199275 1308:0.133655 1328:0.133655 1346:0.208562 1376:0.492754 1386:0.480742 1398:0.188406 1438:0.199275 1443:0.435386 1508:0.133655 1534:0.492754 1554:0.133655 1568:0.208562 1607:0.435386 1616:0.226363 1633:0.507246 1640:0.199275 1648:0.154677 1662:0.188406 1676:0.287037 1690:0.239734 1716:0.492754 1727:0.226363 1757:0.480742 1778:0.199275 1784:0.133655 1795:0.232574 1809:0.188406 1848:0.133655 1859:0.208562 
0.0 61.92505487672504 0.0 0.0 0.0 0.0 22.110089971917624 0.0 9.937936636221549 4:0.0592448 7:0.154514 10:0.0960648 14:0.136485 17:0.168981 20:0.31498 21:0.253472 40:0.25 44:0.214286 48:0.103299 70:0.309028 90:0.16088 110:0.371528 116:0.172309 119:0.0649306 125:0.484954 147:0.204861 166:0.560764 173:0.237269 176:0.09375 184:0.938802 309:0.222222 332:0.140625 337:0.0960648 368:0.0649306 402:0.0592448 435:0.16088 446:0.938802 464:0.154514 465:0.378472 492:0.25 514:0.0960648 537:0.140625 549:0.172309 581:0.0960648 610:0.172309 695:0.168981 753:0.222222 864:0.16088 891:0.190972 896:0.0960648 929:0.938802 980:0.222222 1040:0.938802 1046:0.0649306 1086:0.172309 1096:0.103299 1139:0.25 1157:0.154514 1164:0.16088 1168:0.0592448 1210:0.103299 1289:0.168981 1298:0.25 1299:0.154514 1303:0.0592448 1308:0.0960648 1349:0.168981 1423:0.16088 1443:0.938802 1468:0.378472 1469:0.31498 1500:0.16088 1508:0.0960648 1510:0.0649306 1519:0.154514 1544:0.175347 1552:0.140625 1597:0.190972 1600:0.0592448 1602:0.136485 1607:0.938802 1630:0.204861 1660:0.378472 1685:0.154514 1690:0.172309 1703:0.25 1709:0.204861 1710:0.09375 1724:0.0592448 1738:0.31498 1749:0.0649306 1784:0.0960648 1802:0.190972 1807:0.484954 
0.0 96.66533716545526 0.0 0.0 0.0 0.0 71.58793262993603 19.189119232655223 38.873014587110866 4:0.109844 7:0.0954936 8:0.0968731 9:0.264664 10:0.0593705 21:0.156652 22:0.0866953 30:0.0302954 33:0.0997223 36:0.0641392 53:1.0 58:0.370579 85:0.258941 122:0.179399 127:0.0958512 133:0.107773 150:0.117167 170:0.177039 226:0.370579 337:0.0593705 399:0.0968731 402:0.109844 406:0.179399 413:0.0958512 422:0.107773 423:0.126703 427:0.370579 458:0.177039 459:0.117167 464:0.0954936 513:0.0997223 514:0.0593705 526:0.0704578 581:0.0593705 631:0.107773 635:0.0704578 642:0.179399 672:0.0302954 687:0.370579 688:0.230508 714:0.190987 781:0.126703 824:0.0968731 827:0.111588 830:0.0704578 846:0.0997223 859:0.107773 896:0.0593705 935:0.117167 938:0.370579 982:0.0704578 1045:0.190987 1073:0.370579 1088:0.107773 1144:0.370579 1147:0.0679542 1157:0.0954936 1168:0.109844 1190:0.107773 1252:0.0866953 1253:0.0968731 1261:0.179399 1266:0.258941 1267:0.177039 1299:0.0954936 1302:0.0968731 1303:0.109844 1308:0.0593705 1310:0.277539 1333:0.0997223 1336:0.0866953 1346:0.370579 1347:0.117167 1394:0.107773 1399:0.258941 1438:0.177039 1453:0.179399 1460:0.0302954 1479:0.0968731 1489:0.107773 1508:0.0593705 1518:0.0958512 1519:0.0954936 1533:0.0997223 1545:0.111588 1546:0.0704578 1568:0.370579 1573:0.179399 1600:0.109844 1610:0.126703 1640:0.177039 1685:0.0954936 1694:0.0958512 1696:0.0968731 1724:0.109844 1760:0.0704578 1778:0.177039 1784:0.0593705 1801:0.190987 1806:0.0866953 1815:0.107773 1817:0.0679542 1859:0.370579 
25.257887365650934 0.0 0.0 0.0 2.9815398026055666 0.0 41.4180872426707 26.39726989602093 128.0 1:0.136058 2:0.269712 6:0.117788 7:0.0427885 16:0.0936813 23:0.0262821 26:0.484615 27:0.0257555 31:0.0641272 39:0.14216 40:0.0230769 45:0.376202 50:0.171474 54:0.230769 55:0.181731 58:0.0415119 60:0.186218 64:0.0450549 71:0.0971154 75:0.597543 83:0.0726399 88:0.0692308 99:0.0590812 108:0.0659763 118:1.0 121:0.165385 122:0.0401923 156:0.0888314 183:0.393956 188:0.05 226:0.0415119 243:0.230769 288:0.0446429 331:0.186218 341:0.0387019 343:0.0659763 360:0.102692 376:0.0888314 406:0.0401923 418:0.0288462 427:0.0415119 464:0.0427885 486:0.186218 492:0.0230769 507:0.0387019 520:0.0257555 558:0.0641272 572:0.0641272 623:0.05 642:0.0401923 660:0.186218 687:0.0415119 689:0.0446429 696:0.0332933 726:0.0659763 736:0.0387019 742:0.0590812 746:0.0288462 747:0.0726399 786:0.0450549 821:0.0332933 828:0.186218 841:0.131731 850:0.0387019 872:0.0632134 882:0.0288462 889:0.05 900:0.0446429 913:0.0605769 920:0.0855769 938:0.0415119 941:0.0641272 945:0.0446429 1028:0.0332933 1031:0.186218 1047:0.0701923 1048:0.05 1073:0.0415119 1102:0.0288462 1112:0.0659763 1139:0.0230769 1144:0.0415119 1146:0.0446429 1153:0.05 1157:0.0427885 1217:0.186218 1239:0.0936813 1261:0.0401923 1293:0.0257555 1297:0.0936813 1298:0.0230769 1299:0.0427885 1301:0.0257555 1317:0.0641272 1328:0.186218 1330:0.181731 1334:0.0332933 1337:0.393956 1342:0.269712 1346:0.0415119 1361:0.165385 1368:0.0692308 1371:0.0413462 1372:0.484615 1382:0.171474 1391:0.0632134 1393:0.101923 1397:0.0387019 1420:0.14216 1441:0.0888314 1445:0.472756 1453:0.0401923 1462:0.0971154 1463:0.230769 1517:0.484615 1519:0.0427885 1531:0.171474 1541:0.117788 1554:0.186218 1563:0.0387019 1568:0.0415119 1573:0.0401923 1616:0.0450549 1654:0.165385 1685:0.0427885 1697:0.376202 1699:0.0855769 1701:0.0692308 1703:0.0230769 1713:0.117788 1727:0.0450549 1734:0.0332933 1743:0.0632134 1748:0.181731 1764:0.0855769 1776:0.0726399 1825:0.0387019 1826:0.165385 1833:0.484615 1837:0.230769 1848:0.186218 1850:0.0309615 1855:0.0936813 1857:0.0641272 1859:0.0415119 
75.617611279961 43.43031014066143 7.217678420660105 52.711674036548494 55.10472058184525 82.9686549069287 36.152441861539096 79.30454148725178 62.97260868546869 7:0.165428 9:0.550186 36:1.0 40:0.178439 53:0.288724 58:0.160492 67:0.918216 98:0.1772 100:0.336431 156:0.171719 164:0.556945 165:0.451938 181:0.146468 226:0.160492 376:0.171719 427:0.160492 464:0.165428 492:0.178439 687:0.160492 748:0.172331 790:0.172331 938:0.160492 987:0.26518 1073:0.160492 1139:0.178439 1144:0.160492 1157:0.165428 1230:0.146468 1298:0.178439 1299:0.165428 1339:0.240397 1346:0.160492 1441:0.171719 1519:0.165428 1568:0.160492 1685:0.165428 1703:0.178439 1859:0.160492 
128.0 128.0 128.0 128.0 128.0 128.0 128.0 128.0 128.0 18:0.0187988 43:0.0865057 58:0.0674569 84:0.175781 97:0.2125 123:0.04375 138:0.0956597 151:0.225 172:0.0834375 195:0.120313 198:0.0828125 200:0.451172 204:0.192187 226:0.0674569 228:0.225 236:0.204687 244:0.175781 250:0.122656 257:0.68125 275:0.173438 278:0.139062 316:0.192187 332:0.0632813 351:0.484375 427:0.0674569 432:0.04375 537:0.0632813 567:0.0989583 577:0.0865057 600:0.23125 630:0.2125 657:0.225 683:0.0956597 687:0.0674569 782:0.04375 802:0.0956597 874:0.148437 932:0.2125 938:0.0674569 954:0.0956597 997:0.0989583 1001:0.0834375 1036:0.04375 1073:0.0674569 1085:0.289227 1108:0.12524 1144:0.0674569 1182:0.04375 1183:0.2125 1205:0.0956597 1283:0.0834375 1346:0.0674569 1357:0.04375 1369:0.175781 1374:0.0865057 1376:0.2125 1408:0.0956597 1414:0.0834375 1534:0.2125 1552:0.0632813 1568:0.0674569 1581:0.0956597 1583:0.0187988 1624:0.04375 1711:0.0956597 1716:0.2125 1819:0.0834375 1836:0.04375 1850:0.0503125 1859:0.0674569 
128.0 102.30875133766273 113.64742762096775 128.0 128.0 128.0 123.76283660920542 128.0 128.0 8:0.0910138 26:0.254032 34:0.122519 44:0.248848 190:0.163306 399:0.0910138 508:0.212702 794:0.193548 824:0.0910138 920:0.358871 1039:0.193548 1253:0.0910138 1302:0.0910138 1307:0.163306 1372:0.254032 1375:0.103495 1479:0.0910138 1517:0.254032 1643:0.193548 1696:0.0910138 1741:0.193548 1764:0.358871 1795:0.388249 1833:0.254032 1839:0.846774 1850:0.129839 
16.434953960872182 0.0 14.133656041907805 128.0 21.357390696392503 5.271584202780437 27.455039508317522 0.0 121.80842214891011 1:0.0964882 2:0.0608592 3:0.0301313 4:0.040722 6:0.104415 14:0.375252 20:0.129901 35:0.0318686 40:0.0859189 44:0.0736447 52:0.0216502 55:0.150358 60:0.0330151 65:0.175929 70:0.265513 81:0.0557876 83:0.0901497 88:0.214797 91:0.075179 95:0.0787589 106:0.281514 108:0.0818799 111:0.0635442 116:0.0592184 119:0.0669451 127:0.0533015 132:0.0395121 136:0.199284 146:0.141806 147:0.0704057 171:0.153341 176:0.0644391 178:0.300716 331:0.0330151 343:0.0818799 347:0.141806 368:0.0669451 391:0.075179 402:0.040722 413:0.0533015 415:0.0318686 472:0.0557876 486:0.0330151 492:0.0859189 549:0.0592184 591:0.175929 596:0.141806 610:0.0592184 659:0.126969 660:0.0330151 726:0.0818799 732:0.0557876 747:0.0901497 755:0.0322196 760:0.172434 783:0.175929 828:0.0330151 843:0.0521082 845:0.557279 906:0.0557876 940:0.0787589 974:0.281514 992:0.0322196 1031:0.0330151 1046:0.0669451 1057:0.0787589 1086:0.0592184 1098:0.0216502 1112:0.0818799 1139:0.0859189 1165:0.0557876 1168:0.040722 1217:0.0330151 1234:0.0216502 1292:0.175929 1298:0.0859189 1303:0.040722 1328:0.0330151 1330:0.150358 1342:0.0608592 1368:0.214797 1379:0.175929 1400:0.0557876 1409:0.141806 1428:0.0521082 1433:0.0301313 1461:0.130072 1469:0.129901 1474:0.0787589 1498:0.0322196 1510:0.0669451 1518:0.0533015 1522:0.0216502 1541:0.104415 1550:0.0318686 1554:0.0330151 1557:0.0557876 1562:0.0301313 1569:0.141806 1600:0.040722 1602:0.375252 1623:0.175929 1625:0.0787589 1630:0.0704057 1649:0.130072 1652:0.172434 1674:0.0483294 1681:0.300716 1690:0.0592184 1691:0.0395121 1692:0.0738601 1694:0.0533015 1701:0.214797 1703:0.0859189 1709:0.0704057 1710:0.0644391 1713:0.104415 1724:0.040722 1726:0.0216502 1735:0.124344 1738:0.129901 1747:0.106205 1748:0.150358 1749:0.0669451 1752:0.0301313 1776:0.0901497 1789:0.0908626 1792:0.0787589 1841:0.10716 1848:0.0330151 
0.0 0.0 0.0 0.0 0.0 0.0 8.681647804060676 0.0 0.0 7:0.0865759 10:0.107652 14:0.152948 17:0.568093 19:0.110409 20:0.0705948 31:0.086501 34:0.354684 35:0.051957 43:0.215423 50:0.346952 54:0.18677 57:1.0 59:0.118461 63:0.344358 65:0.191217 81:0.181907 111:0.414397 119:0.0727626 124:0.236868 135:0.2393 144:0.204558 151:0.280156 171:1.0 228:0.280156 243:0.18677 302:0.392996 333:0.236868 337:0.107652 368:0.0727626 415:0.051957 423:0.229741 464:0.0865759 472:0.181907 512:0.204558 514:0.107652 558:0.086501 572:0.086501 577:0.215423 581:0.107652 591:0.191217 626:0.2393 649:0.110409 657:0.280156 695:0.568093 711:0.501946 728:0.140726 732:0.181907 781:0.229741 783:0.191217 791:0.110409 896:0.107652 906:0.181907 918:0.140726 941:0.086501 957:0.204558 977:0.160311 1003:0.140726 1046:0.0727626 1157:0.0865759 1160:0.204558 1165:0.181907 1185:0.276265 1254:0.110409 1289:0.568093 1292:0.191217 1299:0.0865759 1308:0.107652 1317:0.086501 1319:0.2393 1349:0.568093 1374:0.215423 1379:0.191217 1382:0.346952 1400:0.181907 1427:0.344358 1463:0.18677 1469:0.0705948 1508:0.107652 1510:0.0727626 1519:0.0865759 1525:0.140726 1531:0.346952 1538:0.110409 1550:0.051957 1557:0.181907 1602:0.152948 1610:0.229741 1623:0.191217 1639:0.204558 1684:0.363813 1685:0.0865759 1738:0.0705948 1749:0.0727626 1753:0.110409 1784:0.107652 1837:0.18677 1857:0.086501 
121.09705549806631 98.56294252408934 75.9111776605779 73.051792256707 128.0 89.98823791995505 83.87399816472225 128.0 112.62536862307078 35:0.0850506 153:0.601911 332:0.257962 415:0.0850506 537:0.257962 1060:0.66879 1550:0.0850506 1552:0.257962 1611:0.601911 1633:0.66879 1669:0.238545 1672:1.0 1733:0.601911 
47.750143369736776 95.98195152517827 38.20811605663639 16.303110533269212 48.813763611351824 14.407700192385445 70.16735015670956 125.216087675973 128.0 1:0.0518315 3:0.0647436 4:0.04375 7:0.114103 12:0.0931624 14:0.100789 17:0.249573 23:0.0700855 33:0.0595777 40:0.0615385 46:0.0905983 62:0.105333 107:0.074359 116:0.254487 119:0.0479487 146:0.101567 178:0.646154 193:0.0623932 223:0.0597822 341:0.103205 347:0.101567 368:0.0479487 402:0.04375 464:0.114103 470:0.074359 492:0.0615385 507:0.103205 513:0.0595777 539:0.131624 549:0.254487 592:0.074359 596:0.101567 610:0.254487 671:0.105333 681:0.320513 694:0.0905983 695:0.249573 723:0.233333 736:0.103205 797:0.074359 834:0.142308 846:0.0595777 850:0.103205 952:0.074359 1005:0.131624 1034:0.142308 1046:0.0479487 1086:0.254487 1139:0.0615385 1155:0.074359 1157:0.114103 1168:0.04375 1260:0.131624 1289:0.249573 1298:0.0615385 1299:0.114103 1303:0.04375 1333:0.0595777 1349:0.249573 1354:0.074359 1397:0.103205 1409:0.101567 1433:0.0647436 1437:0.0905983 1510:0.0479487 1519:0.114103 1533:0.0595777 1562:0.0647436 1563:0.103205 1569:0.101567 1600:0.04375 1602:0.100789 1627:0.074359 1647:0.0905983 1681:0.646154 1685:0.114103 1690:0.254487 1692:0.158704 1703:0.0615385 1724:0.04375 1749:0.0479487 1752:0.0647436 1769:0.0597822 1824:0.074359 1825:0.103205 1854:0.233333 
34.65325156104355 3.6760474664847616 0.0 21.306217844487506 28.069365001625155 0.0 0.0 0.0 61.7199192027857 2:0.566667 5:0.201709 24:0.0886772 38:1.0 65:0.218413 84:1.0 116:0.220556 244:1.0 297:0.283333 423:0.524831 455:0.322778 508:0.234444 549:0.220556 591:0.218413 610:0.220556 663:0.283333 781:0.524831 783:0.218413 806:0.222716 840:0.283333 901:0.322778 939:0.297778 1086:0.220556 1106:0.222716 1292:0.218413 1342:0.566667 1369:1.0 1379:0.218413 1590:0.201709 1603:0.297778 1610:0.524831 1614:0.0886772 1623:0.218413 1629:0.322778 1668:0.222716 1690:0.220556 1793:0.297778 
0.0 100.46792751541048 30.33976549345399 26.50605539675029 17.90919565257977 16.377983897280853 128.0 128.0 128.0 6:0.0138122 7:0.140489 8:0.124704 27:0.0211411 28:0.0837937 29:0.0246426 40:0.00947119 43:0.065545 52:0.0143195 55:0.0497238 58:0.0851863 60:0.0327545 63:0.06985 65:0.0290901 72:0.154696 74:0.0139198 83:0.178876 84:0.177585 85:0.0714286 86:0.0238753 88:0.0142068 98:0.376217 99:0.072744 105:0.0186323 106:0.037239 108:0.0135389 116:0.0391673 117:0.0133987 120:0.117601 121:0.203631 122:0.0164957 123:0.0220994 125:0.110234 127:0.0176269 130:0.0933307 133:0.0792774 142:0.0953039 146:0.0156319 147:0.0232833 151:0.483031 153:0.0372928 166:0.0637332 172:0.0210734 173:0.0269666 179:0.0307814 180:0.0104578 183:0.0538956 188:0.0615628 226:0.0851863 228:0.483031 244:0.177585 251:0.0147987 275:0.0438043 297:0.0251579 327:0.00957882 329:0.0150524 330:0.0169692 331:0.0327545 332:0.0479479 343:0.0135389 347:0.0156319 360:0.0210734 361:0.0186323 399:0.124704 406:0.0164957 413:0.0176269 418:0.011839 422:0.0792774 423:0.046601 427:0.0851863 432:0.0220994 455:0.0573204 464:0.140489 465:0.043015 483:0.00840568 486:0.0327545 492:0.00947119 505:0.0953039 510:0.0402526 520:0.0211411 526:0.0259142 537:0.0479479 539:0.0202578 546:0.0837937 549:0.0391673 554:0.0186323 577:0.065545 583:0.0186323 588:0.0243545 591:0.0290901 596:0.0156319 610:0.0391673 623:0.0615628 631:0.0792774 635:0.0259142 642:0.0164957 657:0.483031 660:0.0327545 663:0.0251579 668:0.0169692 687:0.0851863 696:0.0136642 722:0.0307814 723:0.0359116 726:0.0135389 742:0.072744 746:0.011839 747:0.178876 763:0.0147987 777:0.0186323 781:0.046601 782:0.0220994 783:0.0290901 800:0.00957882 810:0.0953039 811:0.0209155 817:0.0307814 821:0.0136642 824:0.124704 828:0.0327545 830:0.0259142 840:0.0251579 855:0.0544594 857:0.0996843 859:0.0792774 860:0.0104578 882:0.011839 887:0.0402526 889:0.0615628 891:0.0217048 892:0.0270324 894:0.0238753 895:0.0169692 901:0.0573204 920:0.0351223 938:0.0851863 944:0.0104578 974:0.037239 982:0.0259142 1001:0.0210734 1005:0.0202578 1028:0.0136642 1031:0.0327545 1035:0.151539 1036:0.0220994 1048:0.0615628 1073:0.0851863 1083:0.0953039 1086:0.0391673 1088:0.0792774 1093:0.0402526 1098:0.0143195 1102:0.011839 1112:0.0135389 1116:0.0595896 1125:0.0104578 1139:0.00947119 1144:0.0851863 1147:0.0124967 1153:0.0615628 1157:0.140489 1182:0.0220994 1184:0.0139198 1190:0.0792774 1199:0.0238753 1217:0.0327545 1228:0.0307814 1234:0.0143195 1253:0.124704 1260:0.0202578 1261:0.0164957 1266:0.0714286 1283:0.0210734 1291:0.0837937 1292:0.0290901 1293:0.0211411 1298:0.00947119 1299:0.140489 1301:0.0211411 1302:0.124704 1328:0.0327545 1330:0.0497238 1334:0.0136642 1335:0.0837937 1337:0.0538956 1346:0.0851863 1357:0.0220994 1361:0.203631 1368:0.0142068 1369:0.177585 1371:0.0169692 1374:0.065545 1379:0.0290901 1383:0.0246426 1393:0.0139437 1394:0.0792774 1398:0.0307814 1399:0.0714286 1406:0.0186323 1409:0.0156319 1414:0.0210734 1417:0.0953039 1427:0.06985 1432:0.0996843 1450:0.0238753 1453:0.0164957 1468:0.043015 1479:0.124704 1480:0.00957882 1481:0.0133987 1489:0.0792774 1490:0.132597 1492:0.0378848 1494:0.0837937 1499:0.0186323 1503:0.0238753 1518:0.0176269 1519:0.140489 1520:0.0150524 1522:0.0143195 1528:0.0169692 1541:0.0138122 1546:0.0259142 1552:0.0479479 1554:0.0327545 1560:0.0139198 1564:0.0104578 1568:0.0851863 1569:0.0156319 1573:0.0164957 1578:0.0953039 1582:0.0266377 1597:0.0217048 1604:0.0307814 1606:0.0544594 1610:0.046601 1611:0.0372928 1617:0.0248619 1623:0.0290901 1624:0.0220994 1629:0.0573204 1630:0.0232833 1653:0.0383452 1654:0.203631 1660:0.043015 1662:0.0307814 1669:0.103457 1671:0.0713628 1672:0.0309787 1682:0.0120081 1685:0.140489 1686:0.0372928 1690:0.0391673 1694:0.0176269 1696:0.124704 1701:0.0142068 1703:0.00947119 1705:0.0209155 1709:0.0232833 1713:0.0138122 1722:0.0837937 1726:0.0143195 1733:0.0372928 1734:0.0136642 1736:0.134175 1748:0.0497238 1756:0.0544594 1760:0.0259142 1763:0.0270324 1764:0.0351223 1765:0.0510392 1776:0.178876 1780:0.0351223 1791:0.141081 1800:0.0994475 1802:0.0217048 1803:0.0238753 1807:0.110234 1809:0.0307814 1810:0.0864246 1815:0.0792774 1817:0.0124967 1819:0.0210734 1821:0.0169692 1826:0.203631 1836:0.0220994 1841:0.035438 1848:0.0327545 1854:0.0359116 1859:0.0851863 
128.0 128.0 128.0 128.0 128.0 128.0 128.0 128.0 128.0 1:0.0241029 2:0.0101351 6:0.00695548 14:0.0156231 19:0.0338335 24:0.0158604 26:0.0250397 27:0.0106462 31:0.0176715 41:0.089378 54:0.0190779 56:0.0530888 61:0.0733969 64:0.0186237 73:0.0287304 74:0.112155 79:0.0586248 81:0.0185811 85:0.0239799 107:0.0345787 108:0.0136358 114:0.0208665 119:0.0148649 132:0.131602 134:0.0481251 138:0.0243332 144:0.0417897 170:0.114765 175:0.0121224 178:0.0250397 179:0.0155008 243:0.0190779 294:0.0121224 301:0.0530888 343:0.0136358 368:0.0148649 414:0.089378 423:0.0234672 458:0.114765 469:0.0520668 470:0.0345787 472:0.0185811 474:0.0279087 512:0.0417897 520:0.0106462 528:0.0898251 539:0.0204028 558:0.0176715 572:0.0176715 573:0.0250397 590:0.0582273 592:0.0345787 617:0.0147059 621:0.0530888 649:0.0338335 683:0.0243332 702:0.09062 722:0.0155008 726:0.0136358 732:0.0185811 774:0.0520668 781:0.0234672 786:0.0186237 791:0.0338335 797:0.0345787 802:0.0243332 817:0.0155008 885:0.0530888 905:0.208314 906:0.0185811 920:0.0353736 931:0.0279087 939:0.0798887 941:0.0176715 952:0.0345787 954:0.0243332 957:0.0417897 1005:0.0204028 1013:0.0729995 1046:0.0148649 1059:0.0687599 1069:0.0530888 1076:0.208314 1095:0.0250397 1112:0.0136358 1120:0.013258 1121:0.0123779 1123:0.0136129 1124:0.0147059 1132:0.086248 1155:0.0345787 1156:0.0530888 1160:0.0417897 1161:0.0721383 1165:0.0185811 1176:0.0250397 1178:0.0155229 1184:0.112155 1191:0.0143581 1205:0.0243332 1228:0.0155008 1232:0.143747 1242:0.0520668 1247:0.0279087 1254:0.0338335 1260:0.0204028 1266:0.0239799 1267:0.114765 1285:0.240064 1293:0.0106462 1301:0.0106462 1316:0.0279087 1317:0.0176715 1342:0.0101351 1352:0.0530888 1354:0.0345787 1372:0.0250397 1398:0.0155008 1399:0.0239799 1400:0.0185811 1402:0.0715421 1408:0.0243332 1436:0.0520668 1438:0.114765 1452:0.089378 1463:0.0190779 1465:0.0451113 1485:0.0279087 1509:0.0520668 1510:0.0148649 1517:0.0250397 1530:0.00540541 1532:0.0449126 1538:0.0338335 1539:0.0878378 1541:0.00695548 1557:0.0185811 1560:0.112155 1581:0.0243332 1602:0.0156231 1603:0.0798887 1605:0.0528617 1610:0.0234672 1614:0.0158604 1616:0.0186237 1627:0.0345787 1632:0.324736 1639:0.0417897 1640:0.114765 1644:0.0530888 1662:0.0155008 1676:0.0236155 1681:0.0250397 1683:0.00540541 1687:0.046858 1688:0.0481251 1689:0.324736 1691:0.131602 1693:0.0530253 1698:0.206677 1704:0.0782989 1708:0.0520668 1711:0.0243332 1713:0.00695548 1718:0.0180843 1727:0.0186237 1729:0.18442 1742:0.147589 1749:0.0148649 1753:0.0338335 1758:0.0530888 1761:0.0077504 1764:0.0353736 1778:0.114765 1779:0.0279087 1793:0.0798887 1794:0.0287304 1808:0.0528458 1809:0.0155008 1816:0.122417 1824:0.0345787 1830:0.240064 1833:0.0250397 1837:0.0190779 1850:0.0127981 1857:0.0176715 
0.0 0.0 0.0 0.0 0.0 0.0 33.926430684595246 0.0 85.72663988930339 1:0.706793 7:0.466783 16:0.340659 44:0.431568 58:0.301905 61:0.645688 75:0.511266 98:1.0 100:0.632867 165:0.85015 226:0.301905 236:0.916084 427:0.301905 464:0.466783 687:0.301905 938:0.301905 1073:0.301905 1144:0.301905 1157:0.466783 1239:0.340659 1297:0.340659 1299:0.466783 1346:0.301905 1491:0.291209 1519:0.466783 1568:0.301905 1685:0.466783 1791:1.0 1855:0.340659 1859:0.301905 
40.66752002966513 18.07633007242537 38.61793156711465 35.24772127456056 128.0 128.0 56.63362210395451 69.39999159984977 66.70499171148491 54:0.212389 65:0.108723 103:0.178761 158:1.0 243:0.212389 419:0.178761 591:0.108723 595:0.195031 716:0.178761 740:0.407396 752:0.785082 783:0.108723 861:0.178761 926:0.407396 1099:0.178761 1219:0.178761 1274:0.517699 1292:0.108723 1379:0.108723 1381:0.178761 1463:0.212389 1576:0.517699 1623:0.108723 1657:0.178761 1813:0.178761 1837:0.212389 
0.0 61.92732966002902 0.0 44.16304464741183 0.0 103.57681812181046 25.395989829830064 0.0 0.0 2:0.367788 33:0.223416 56:0.128434 58:0.20756 60:0.133013 74:0.16958 75:0.702991 85:0.580128 107:0.278846 118:0.47619 179:0.1875 188:0.5 226:0.20756 301:0.128434 331:0.133013 427:0.20756 470:0.278846 486:0.133013 513:0.223416 592:0.278846 621:0.128434 623:0.5 660:0.133013 687:0.20756 722:0.1875 797:0.278846 817:0.1875 828:0.133013 846:0.223416 885:0.128434 889:0.5 938:0.20756 952:0.278846 1031:0.133013 1048:0.5 1069:0.128434 1073:0.20756 1144:0.20756 1153:0.5 1155:0.278846 1156:0.128434 1184:0.16958 1217:0.133013 1228:0.1875 1266:0.580128 1328:0.133013 1333:0.223416 1342:0.367788 1346:0.20756 1352:0.128434 1354:0.278846 1398:0.1875 1399:0.580128 1533:0.223416 1554:0.133013 1560:0.16958 1568:0.20756 1627:0.278846 1644:0.128434 1662:0.1875 1758:0.128434 1809:0.1875 1824:0.278846 1848:0.133013 1859:0.20756 
0.0 46.153532749767535 0.0 0.0 0.0 84.70099904558944 50.98617532211766 0.0 39.864517658276625 7:0.432039 18:0.116808 58:0.838299 60:0.268608 177:0.430421 184:0.875 226:0.838299 331:0.268608 427:0.838299 446:0.875 464:0.432039 486:0.268608 660:0.268608 687:0.838299 828:0.268608 929:0.875 938:0.838299 973:0.430421 1031:0.268608 1040:0.875 1073:0.838299 1131:0.430421 1144:0.838299 1157:0.432039 1217:0.268608 1299:0.432039 1328:0.268608 1346:0.838299 1390:0.430421 1443:0.875 1519:0.432039 1554:0.268608 1568:0.838299 1583:0.116808 1594:0.430421 1599:1.0 1607:0.875 1685:0.432039 1848:0.268608 1859:0.838299 
0.0 13.837527332726786 0.0 0.0 0.0 0.0 0.0 0.0 84.91269072496027 4:0.383427 7:1.0 33:0.261071 58:0.485083 81:0.525281 107:0.651685 116:0.557584 127:0.250936 226:0.485083 402:0.383427 413:0.250936 427:0.485083 464:1.0 469:0.735955 470:0.651685 472:0.525281 513:0.261071 549:0.557584 592:0.651685 610:0.557584 687:0.485083 732:0.525281 774:0.735955 797:0.651685 846:0.261071 906:0.525281 938:0.485083 952:0.651685 1073:0.485083 1086:0.557584 1144:0.485083 1155:0.651685 1157:1.0 1165:0.525281 1168:0.383427 1242:0.735955 1299:1.0 1303:0.383427 1333:0.261071 1346:0.485083 1354:0.651685 1400:0.525281 1436:0.735955 1509:0.735955 1518:0.250936 1519:1.0 1533:0.261071 1557:0.525281 1568:0.485083 1600:0.383427 1627:0.651685 1685:1.0 1690:0.557584 1694:0.250936 1708:0.735955 1724:0.383427 1824:0.651685 1859:0.485083 
128.0 128.0 85.16326030462037 128.0 128.0 128.0 85.87714445091287 128.0 85.7707059215832 14:0.0990118 21:0.551637 58:0.108747 122:0.10529 143:0.174307 179:0.0982368 226:0.108747 406:0.10529 423:0.148724 427:0.108747 642:0.10529 687:0.108747 715:0.174307 722:0.0982368 762:0.081738 780:0.100252 781:0.148724 817:0.0982368 863:0.420025 867:0.779597 938:0.108747 1006:0.287993 1041:0.081738 1073:0.108747 1144:0.108747 1228:0.0982368 1261:0.10529 1346:0.108747 1398:0.0982368 1431:0.174307 1453:0.10529 1461:0.274559 1521:0.081738 1568:0.108747 1573:0.10529 1599:0.259446 1602:0.0990118 1610:0.148724 1649:0.274559 1662:0.0982368 1772:0.672544 1809:0.0982368 1859:0.108747 
0.0 15.495366311489242 0.0 0.0 0.0 0.0 0.0 23.61244379863658 0.0 3:0.0755988 6:0.0523952 8:0.473054 12:0.108782 19:0.16991 24:0.179213 26:0.188623 27:0.320787 29:0.186959 54:0.143713 58:0.387776 60:0.0828343 64:0.140291 81:0.27994 85:0.180639 119:0.055988 132:0.297405 162:0.110279 168:0.429578 226:0.387776 243:0.143713 331:0.0828343 368:0.055988 399:0.473054 427:0.387776 468:0.429578 472:0.27994 486:0.0828343 520:0.320787 562:0.215569 649:0.16991 660:0.0828343 687:0.387776 711:0.193114 732:0.27994 786:0.140291 791:0.16991 824:0.473054 828:0.0828343 854:0.429578 886:0.215569 906:0.27994 938:0.387776 1031:0.0828343 1046:0.055988 1053:0.429578 1073:0.387776 1144:0.387776 1165:0.27994 1217:0.0828343 1246:0.110279 1253:0.473054 1254:0.16991 1266:0.180639 1293:0.320787 1301:0.320787 1302:0.473054 1328:0.0828343 1346:0.387776 1372:0.188623 1383:0.186959 1393:0.105788 1399:0.180639 1400:0.27994 1433:0.0755988 1463:0.143713 1479:0.473054 1510:0.055988 1517:0.188623 1538:0.16991 1541:0.0523952 1554:0.0828343 1557:0.27994 1562:0.0755988 1568:0.387776 1574:0.215569 1614:0.179213 1616:0.140291 1651:0.429578 1691:0.297405 1696:0.473054 1713:0.0523952 1727:0.140291 1749:0.055988 1752:0.0755988 1753:0.16991 1775:0.215569 1833:0.188623 1837:0.143713 1848:0.0828343 1850:0.0964072 1859:0.387776 
52.73278036502805 101.40766439067254 33.19958401700068 47.056659099899065 71.65612548849806 128.0 5.048499402913626 56.09079062918061 34.02584933276492 56:0.314286 97:0.4 170:0.485294 177:0.521569 301:0.314286 458:0.485294 621:0.314286 630:0.4 885:0.314286 932:0.4 973:0.521569 1069:0.314286 1131:0.521569 1156:0.314286 1183:0.4 1267:0.485294 1352:0.314286 1376:0.4 1378:1.0 1390:0.521569 1438:0.485294 1534:0.4 1594:0.521569 1640:0.485294 1644:0.314286 1716:0.4 1758:0.314286 1778:0.485294 
0.0 128.0 97.27270998198618 128.0 108.4152043499248 128.0 68.80086718507457 128.0 128.0 8:0.163957 10:0.0167474 17:0.0589185 26:0.0762712 30:0.0170916 31:0.0134569 39:0.0447476 43:0.0335131 44:0.0373573 45:0.0473668 58:0.0522668 64:0.0283639 65:0.0297475 73:0.0437565 74:0.0213515 79:0.0892857 81:0.226392 84:0.0680993 86:0.256356 87:0.0982026 90:0.0560936 97:0.0205811 105:0.228641 112:0.0873688 114:0.0635593 115:0.0236077 116:0.150197 117:0.205523 119:0.0452784 121:0.0520581 133:0.0152004 142:0.146186 144:0.0318229 146:0.0239777 153:0.17161 154:0.0255246 168:0.173704 169:0.0181598 179:0.0236077 184:0.10911 191:0.245936 193:0.0294592 223:0.0141132 226:0.0522668 244:0.0680993 275:0.134383 327:0.0293859 332:0.0245157 337:0.0167474 347:0.0239777 361:0.228641 368:0.0452784 373:0.0635593 398:0.0128074 399:0.163957 418:0.0181598 422:0.0152004 423:0.0714812 427:0.0522668 435:0.0560936 446:0.10911 455:0.0439619 468:0.173704 472:0.226392 505:0.146186 512:0.0318229 514:0.0167474 526:0.0198749 530:0.0873688 537:0.0245157 549:0.150197 554:0.228641 555:0.196219 558:0.0134569 562:0.0435835 572:0.0134569 577:0.0335131 581:0.0167474 583:0.228641 590:0.0443402 591:0.0297475 596:0.0239777 610:0.150197 630:0.0205811 631:0.0152004 635:0.0198749 672:0.0170916 686:0.109564 687:0.0522668 695:0.0589185 719:0.0236077 722:0.0236077 728:0.0218927 732:0.226392 735:0.0507264 744:0.102704 746:0.0181598 756:0.0240219 757:0.0255246 773:0.0162228 777:0.228641 781:0.0714812 783:0.0297475 786:0.0283639 793:0.245936 795:0.0236077 800:0.0293859 805:0.196219 810:0.146186 812:0.0484261 817:0.0236077 824:0.163957 830:0.0198749 841:0.0829298 854:0.173704 859:0.0152004 864:0.0560936 877:0.0873688 882:0.0181598 886:0.0435835 892:0.0414649 894:0.256356 896:0.0167474 901:0.0439619 906:0.226392 913:0.0381356 918:0.0218927 919:0.0792978 920:0.0538741 929:0.10911 932:0.0205811 934:0.0635593 938:0.0522668 941:0.0134569 957:0.0318229 972:0.0982026 982:0.0198749 1003:0.0218927 1040:0.10911 1046:0.0452784 1053:0.173704 1054:0.196219 1058:0.0240219 1059:0.104722 1073:0.0522668 1083:0.146186 1086:0.150197 1088:0.0152004 1101:0.0873688 1102:0.0181598 1144:0.0522668 1160:0.0318229 1164:0.0560936 1165:0.226392 1169:0.0982026 1183:0.0205811 1184:0.0213515 1190:0.0152004 1199:0.256356 1221:0.0873688 1228:0.0236077 1253:0.163957 1274:0.141646 1275:0.0196731 1289:0.0589185 1292:0.0297475 1294:0.0135593 1302:0.163957 1308:0.0167474 1317:0.0134569 1346:0.0522668 1349:0.0589185 1361:0.0520581 1369:0.0680993 1372:0.0762712 1374:0.0335131 1375:0.0155367 1376:0.0205811 1379:0.0297475 1394:0.0152004 1398:0.0236077 1400:0.226392 1403:0.0181598 1406:0.228641 1407:0.0547821 1409:0.0239777 1417:0.146186 1420:0.0447476 1422:0.0873688 1423:0.0560936 1443:0.10911 1444:0.0236077 1450:0.256356 1460:0.0170916 1461:0.0659806 1478:0.245936 1479:0.163957 1480:0.0293859 1481:0.205523 1484:0.0250202 1487:0.0255246 1489:0.0152004 1490:0.20339 1491:0.0756226 1492:0.348668 1493:0.0210856 1499:0.228641 1500:0.0560936 1503:0.256356 1505:0.0635593 1507:0.0399516 1508:0.0167474 1510:0.0452784 1516:0.145278 1517:0.0762712 1524:0.0240219 1525:0.0218927 1534:0.0205811 1536:0.0371671 1542:0.0196731 1546:0.0198749 1552:0.0245157 1557:0.226392 1560:0.0213515 1561:0.0484261 1568:0.0522668 1569:0.0239777 1571:0.0873688 1574:0.0435835 1576:0.141646 1578:0.146186 1593:0.101695 1598:0.283293 1607:0.10911 1610:0.0714812 1611:0.17161 1616:0.0283639 1623:0.0297475 1626:0.0162228 1629:0.0439619 1639:0.0318229 1645:0.0684019 1649:0.0659806 1651:0.173704 1654:0.0520581 1662:0.0236077 1667:0.0914044 1690:0.150197 1696:0.163957 1697:0.0473668 1716:0.0205811 1727:0.0283639 1732:0.0684019 1733:0.17161 1749:0.0452784 1760:0.0198749 1763:0.0414649 1764:0.0538741 1769:0.0141132 1775:0.0435835 1784:0.0167474 1794:0.0437565 1795:0.0291422 1803:0.256356 1809:0.0236077 1815:0.0152004 1826:0.0520581 1833:0.0762712 1843:0.0135593 1857:0.0134569 1859:0.0522668 
0.0 113.279684351651 65.71798393081846 116.09091882615296 1.4969599729580783 128.0 122.26051599417454 128.0 34.77541614260686 6:0.106838 8:0.0551195 26:0.230769 50:0.108873 65:0.0600035 90:0.226292 95:0.0805861 97:0.373626 105:0.115297 115:0.047619 117:0.0414559 119:0.0228327 142:0.196581 154:0.0772283 180:0.0647131 279:0.167277 297:0.0778388 327:0.118548 332:0.0494506 361:0.115297 368:0.0228327 373:0.128205 399:0.0551195 435:0.226292 505:0.196581 526:0.0400895 537:0.0494506 554:0.115297 583:0.115297 590:0.0894383 591:0.0600035 630:0.373626 635:0.0400895 663:0.0778388 719:0.047619 755:0.032967 756:0.0969089 757:0.0772283 764:0.160358 777:0.115297 778:0.0558608 783:0.0600035 795:0.047619 800:0.118548 810:0.196581 824:0.0551195 827:0.0634921 830:0.0400895 840:0.0778388 843:0.0533171 860:0.0647131 864:0.226292 919:0.159951 932:0.373626 934:0.128205 940:0.0805861 944:0.0647131 982:0.0400895 992:0.032967 1046:0.0228327 1057:0.0805861 1058:0.0969089 1060:0.384615 1083:0.196581 1125:0.0647131 1164:0.226292 1183:0.373626 1253:0.0551195 1274:0.285714 1292:0.0600035 1302:0.0551195 1372:0.230769 1376:0.373626 1379:0.0600035 1382:0.108873 1406:0.115297 1417:0.196581 1423:0.226292 1428:0.0533171 1444:0.047619 1474:0.0805861 1479:0.0551195 1480:0.118548 1481:0.0414559 1486:0.0558608 1487:0.0772283 1490:0.205128 1491:0.152538 1497:0.0308303 1498:0.032967 1499:0.115297 1500:0.226292 1505:0.128205 1510:0.0228327 1512:0.110065 1516:0.14652 1517:0.230769 1524:0.0969089 1529:0.160358 1531:0.108873 1534:0.373626 1541:0.106838 1545:0.0634921 1546:0.0400895 1552:0.0494506 1564:0.0647131 1576:0.285714 1578:0.196581 1623:0.0600035 1625:0.0805861 1633:0.384615 1696:0.0551195 1713:0.106838 1714:0.429182 1716:0.373626 1749:0.0228327 1760:0.0400895 1792:0.0805861 1833:0.230769 
124.28811170604284 122.75901652566814 99.6318954882501 115.9305765837122 32.01910746257456 74.11072307142254 18.684470943372414 98.0118559362379 0.0 4:0.0338542 54:0.285714 62:0.0815079 65:0.0487528 133:0.0498236 143:0.137302 158:0.560516 243:0.285714 362:0.161749 402:0.0338542 422:0.0498236 474:0.0696609 509:0.248016 591:0.0487528 595:0.20406 631:0.0498236 671:0.0815079 684:0.161749 715:0.137302 740:0.365363 752:0.880102 783:0.0487528 792:0.190476 859:0.0498236 926:0.365363 931:0.0696609 1088:0.0498236 1168:0.0338542 1190:0.0498236 1247:0.0696609 1268:0.585317 1274:0.232143 1292:0.0487528 1303:0.0338542 1316:0.0696609 1379:0.0487528 1394:0.0498236 1431:0.137302 1463:0.285714 1485:0.0696609 1489:0.0498236 1576:0.232143 1600:0.0338542 1623:0.0487528 1659:0.190476 1724:0.0338542 1779:0.0696609 1814:0.190476 1815:0.0498236 1837:0.285714 
96.6592031448603 82.26619397886705 0.0 71.0347542415412 39.77408222671859 128.0 128.0 95.22442418657711 128.0 7:0.164005 8:0.0739441 10:0.022659 16:0.039897 17:0.0797161 19:0.0232391 24:0.032682 28:0.024843 39:0.0605431 44:0.0505441 45:0.0640868 58:0.106075 65:0.040248 73:0.0592021 81:0.0765766 83:0.185615 85:0.148239 94:0.0765181 98:0.156156 99:0.100646 106:0.0386419 121:0.0704341 123:0.11466 130:0.677928 132:0.0813541 133:0.020566 134:0.0247917 143:0.11335 151:0.176904 166:0.264537 177:0.145236 182:0.0999181 191:0.018486 202:0.0999181 218:0.0457498 226:0.106075 228:0.176904 337:0.022659 341:0.0329648 373:0.0429975 399:0.0739441 409:0.026695 422:0.020566 427:0.106075 432:0.11466 464:0.164005 472:0.0765766 507:0.0329648 514:0.022659 546:0.024843 581:0.022659 591:0.040248 600:0.0606061 631:0.020566 649:0.0232391 657:0.176904 661:0.0778051 687:0.106075 695:0.0797161 706:0.0457498 715:0.11335 723:0.0372645 732:0.0765766 736:0.0329648 742:0.100646 747:0.185615 748:0.0379665 782:0.11466 783:0.040248 790:0.0379665 791:0.0232391 793:0.018486 824:0.0739441 833:0.026695 850:0.0329648 859:0.020566 891:0.045045 896:0.022659 906:0.0765766 920:0.0728911 934:0.0429975 937:0.0778051 938:0.106075 961:0.0778051 973:0.145236 974:0.0386419 1013:0.150423 1036:0.11466 1073:0.106075 1088:0.020566 1111:0.026695 1131:0.145236 1144:0.106075 1157:0.164005 1165:0.0765766 1182:0.11466 1190:0.020566 1239:0.039897 1253:0.0739441 1254:0.0232391 1266:0.148239 1289:0.0797161 1291:0.024843 1292:0.040248 1297:0.039897 1299:0.164005 1302:0.0739441 1308:0.022659 1335:0.024843 1346:0.106075 1349:0.0797161 1357:0.11466 1361:0.0704341 1371:0.0704341 1379:0.040248 1387:0.0765181 1390:0.145236 1394:0.020566 1397:0.0329648 1399:0.148239 1400:0.0765766 1420:0.0605431 1421:0.0999181 1431:0.11335 1478:0.018486 1479:0.0739441 1484:0.033852 1489:0.020566 1494:0.024843 1505:0.0429975 1508:0.022659 1519:0.164005 1538:0.0232391 1551:0.026695 1557:0.0765766 1563:0.0329648 1568:0.106075 1594:0.145236 1597:0.045045 1604:0.0638821 1614:0.032682 1623:0.040248 1624:0.11466 1654:0.0704341 1672:0.0321458 1674:0.0331695 1677:0.025038 1685:0.164005 1686:0.0386978 1688:0.0247917 1691:0.0813541 1696:0.0739441 1697:0.0640868 1704:0.0403358 1715:0.0765181 1722:0.024843 1753:0.0232391 1764:0.0728911 1776:0.185615 1784:0.022659 1791:0.0585586 1794:0.0592021 1802:0.045045 1810:0.179361 1815:0.020566 1825:0.0329648 1826:0.0704341 1836:0.11466 1854:0.0372645 1855:0.039897 1856:0.0888616 1859:0.106075 
0.0 52.65090325248195 0.0 0.0 0.0 0.0 0.0 0.0 0.0 7:0.138199 12:0.225673 22:0.752795 116:0.92469 144:0.326531 464:0.138199 512:0.326531 549:0.92469 610:0.92469 948:0.596273 957:0.326531 1086:0.92469 1157:0.138199 1160:0.326531 1252:0.752795 1290:0.596273 1299:0.138199 1336:0.752795 1519:0.138199 1639:0.326531 1685:0.138199 1690:0.92469 1806:0.752795 1850:1.0 
0.0 0.0 19.993390116316757 22.914098973683444 0.0 0.0 0.0 0.0 13.228576409972705 2:0.366029 3:0.36244 5:0.217151 8:0.0359991 12:0.115896 14:0.0626917 24:0.0954659 28:0.0483785 30:0.0675486 31:0.0709115 41:0.051236 45:0.124801 54:0.076555 65:0.0391889 77:0.204263 81:0.149123 86:0.0964912 91:0.401914 107:0.092504 114:0.753589 119:0.0298246 122:0.266667 133:0.0400496 138:0.0976431 243:0.076555 368:0.0298246 391:0.401914 399:0.0359991 406:0.266667 414:0.051236 422:0.0400496 455:0.347488 465:0.173844 470:0.092504 471:0.0489102 472:0.149123 508:0.0841308 539:0.0818713 546:0.0483785 548:0.0714514 558:0.0709115 572:0.0709115 590:0.116826 591:0.0391889 592:0.092504 631:0.0400496 642:0.266667 672:0.0675486 683:0.0976431 711:0.205742 714:0.283892 732:0.149123 749:0.233652 783:0.0391889 797:0.092504 802:0.0976431 819:0.0714514 824:0.0359991 859:0.0400496 866:0.204263 892:0.874003 894:0.0964912 901:0.347488 906:0.149123 941:0.0709115 952:0.092504 954:0.0976431 985:0.233652 1005:0.0818713 1045:0.283892 1046:0.0298246 1088:0.0400496 1108:0.127837 1155:0.092504 1165:0.149123 1175:0.233652 1190:0.0400496 1199:0.0964912 1205:0.0976431 1222:0.130781 1249:0.0714514 1253:0.0359991 1260:0.0818713 1261:0.266667 1291:0.0483785 1292:0.0391889 1302:0.0359991 1317:0.0709115 1335:0.0483785 1342:0.366029 1354:0.092504 1379:0.0391889 1394:0.0400496 1400:0.149123 1408:0.0976431 1433:0.36244 1450:0.0964912 1452:0.051236 1453:0.266667 1460:0.0675486 1463:0.076555 1468:0.173844 1479:0.0359991 1483:0.0714514 1489:0.0400496 1494:0.0483785 1503:0.0964912 1510:0.0298246 1557:0.149123 1562:0.36244 1573:0.266667 1581:0.0976431 1590:0.217151 1602:0.0626917 1614:0.0954659 1623:0.0391889 1627:0.092504 1629:0.347488 1632:0.0394874 1648:0.204263 1660:0.173844 1689:0.0394874 1696:0.0359991 1697:0.124801 1711:0.0976431 1722:0.0483785 1746:0.0714514 1749:0.0298246 1752:0.36244 1763:0.874003 1795:0.230349 1801:0.283892 1803:0.0964912 1815:0.0400496 1824:0.092504 1837:0.076555 1857:0.0709115 
81.12566914176189 40.268269377128405 16.318277610493688 124.61425615887049 117.1851626429659 108.61027077507462 53.57388469797607 128.0 128.0 2:0.064557 8:0.0285714 19:0.0359177 20:0.0229656 24:0.0252562 30:0.0357409 40:0.0303797 41:0.121994 119:0.189367 122:0.0529114 132:0.0419128 134:0.153269 170:0.208861 176:0.0341772 178:0.0797468 368:0.189367 399:0.0285714 406:0.0529114 414:0.121994 458:0.208861 492:0.0303797 559:0.249367 642:0.0529114 649:0.0359177 672:0.0357409 729:0.0679325 791:0.0359177 815:0.0679325 824:0.0285714 856:0.249367 1046:0.189367 1082:0.249367 1117:0.0679325 1139:0.0303797 1147:0.120253 1161:0.0765823 1253:0.0285714 1254:0.0359177 1261:0.0529114 1267:0.208861 1285:0.0955696 1298:0.0303797 1302:0.0285714 1342:0.064557 1438:0.208861 1452:0.121994 1453:0.0529114 1460:0.0357409 1466:0.0978042 1469:0.0229656 1479:0.0285714 1510:0.189367 1530:0.0172152 1538:0.0359177 1573:0.0529114 1591:0.0679325 1614:0.0252562 1619:0.0978042 1632:0.34474 1640:0.208861 1663:0.249367 1673:0.0257612 1681:0.0797468 1683:0.0172152 1688:0.153269 1689:0.34474 1691:0.0419128 1696:0.0285714 1703:0.0303797 1710:0.0341772 1718:0.0863924 1721:0.0978042 1738:0.0229656 1742:0.940084 1749:0.189367 1753:0.0359177 1778:0.208861 1791:0.0905063 1817:0.120253 1829:0.12827 1830:0.0955696 1834:0.306329 1851:0.0679325 
98.62052972085937 128.0 0.0 0.0 51.69466184861054 44.2938361450648 0.0 73.70645553479308 0.0 7:0.0684615 8:0.0694506 15:0.181662 20:0.111648 41:0.0988462 87:0.166391 116:0.305385 146:0.12188 155:0.409231 184:0.277308 288:0.142857 297:0.392308 347:0.12188 399:0.0694506 414:0.0988462 446:0.277308 464:0.0684615 549:0.305385 596:0.12188 610:0.305385 663:0.392308 689:0.142857 824:0.0694506 840:0.392308 900:0.142857 929:0.277308 945:0.142857 972:0.166391 1040:0.277308 1086:0.305385 1146:0.142857 1157:0.0684615 1169:0.166391 1253:0.0694506 1299:0.0684615 1302:0.0694506 1353:0.181662 1409:0.12188 1443:0.277308 1452:0.0988462 1461:0.335385 1469:0.111648 1479:0.0694506 1519:0.0684615 1569:0.12188 1605:0.818462 1607:0.277308 1649:0.335385 1685:0.0684615 1690:0.305385 1696:0.0694506 1738:0.111648 1780:0.273846 
9.88865780347747 48.0763294316375 21.71693699862138 0.0 68.66115120136655 29.744770791878967 91.95382826082928 60.64860771549157 98.23669470136487 23:0.159844 40:0.140351 47:0.271172 56:0.156224 85:0.352826 94:0.273183 142:0.47076 182:0.71345 202:0.71345 275:0.649123 292:0.271172 301:0.156224 492:0.140351 505:0.47076 609:0.271172 621:0.156224 810:0.47076 885:0.156224 1069:0.156224 1083:0.47076 1091:0.271172 1139:0.140351 1156:0.156224 1266:0.352826 1286:0.271172 1298:0.140351 1352:0.156224 1387:0.273183 1399:0.352826 1417:0.47076 1421:0.71345 1429:0.271172 1461:0.637427 1578:0.47076 1644:0.156224 1649:0.637427 1703:0.140351 1715:0.273183 1735:0.609357 1758:0.156224 
0.0 13.441143862657938 0.0 0.0 0.0 0.0 0.0 9.04268930566679 7.514368351908165 2:0.449471 3:0.267039 4:0.180449 5:0.0533309 7:0.0522914 9:0.0289855 10:0.0325108 14:0.23095 15:0.0693772 17:0.0571876 18:0.0282756 21:0.0857814 25:1.0 37:0.0664578 40:0.0282021 41:0.0377497 45:0.367803 46:0.0415198 47:0.0544893 50:0.104779 51:0.0940071 56:0.0313916 57:0.0754994 78:0.347826 109:0.0318876 112:0.169604 122:0.0491187 123:0.0329025 131:0.0192287 149:0.229646 154:0.0495495 162:0.0432824 174:0.184489 177:0.0520956 179:0.0458284 183:0.160483 186:0.106345 218:0.0328205 262:0.184489 292:0.0544893 301:0.0313916 337:0.0325108 358:0.146215 402:0.180449 406:0.0491187 414:0.0377497 432:0.0329025 439:0.0192287 464:0.0522914 492:0.0282021 495:0.229646 508:0.0619859 514:0.0325108 530:0.169604 581:0.0325108 609:0.0544893 621:0.0313916 639:0.0664578 642:0.0491187 692:0.04387 694:0.0415198 695:0.0571876 706:0.0328205 722:0.0458284 729:0.126126 757:0.0495495 769:0.0192287 782:0.0329025 792:0.112808 815:0.126126 817:0.0458284 843:0.0513122 877:0.169604 885:0.0313916 896:0.0325108 902:0.229646 905:0.205295 927:0.104583 946:0.0192287 973:0.0520956 1022:0.104583 1035:0.112808 1036:0.0329025 1051:0.229646 1069:0.0313916 1076:0.205295 1091:0.0544893 1101:0.169604 1113:0.143948 1117:0.126126 1128:0.124224 1131:0.0520956 1139:0.0282021 1147:0.0372111 1156:0.0313916 1157:0.0522914 1168:0.180449 1182:0.0329025 1221:0.169604 1228:0.0458284 1241:0.0192287 1246:0.0432824 1261:0.0491187 1286:0.0544893 1289:0.0571876 1298:0.0282021 1299:0.0522914 1303:0.180449 1308:0.0325108 1337:0.160483 1341:0.04387 1342:0.449471 1349:0.0571876 1352:0.0313916 1353:0.0693772 1357:0.0329025 1382:0.104779 1390:0.0520956 1398:0.0458284 1401:0.0192287 1410:0.106345 1422:0.169604 1428:0.0513122 1429:0.0544893 1433:0.267039 1437:0.0415198 1452:0.0377497 1453:0.0491187 1470:0.229646 1487:0.0495495 1506:0.0192287 1508:0.0325108 1519:0.0522914 1531:0.104779 1562:0.267039 1571:0.169604 1573:0.0491187 1583:0.0282756 1590:0.0533309 1591:0.126126 1594:0.0520956 1600:0.180449 1602:0.23095 1613:0.229646 1624:0.0329025 1644:0.0313916 1647:0.0415198 1659:0.112808 1662:0.0458284 1685:0.0522914 1697:0.367803 1703:0.0282021 1724:0.180449 1752:0.267039 1758:0.0313916 1784:0.0325108 1796:0.0192287 1809:0.0458284 1814:0.112808 1817:0.0372111 1836:0.0329025 1851:0.126126 1853:0.0664578 
128.0 125.01712015086136 59.67135912678024 121.66062137779745 128.0 95.0845310254162 54.444396146491535 128.0 16.186327695818225 3:0.0698479 14:0.0543675 73:0.0999802 122:0.0578147 131:0.022633 155:0.183956 180:0.0733057 267:0.0871369 338:0.647303 406:0.0578147 439:0.022633 475:0.647303 510:0.141079 642:0.0578147 769:0.022633 794:0.06639 806:0.06931 860:0.0733057 887:0.141079 944:0.0733057 946:0.022633 963:0.360996 988:0.0401107 1039:0.06639 1061:0.028527 1093:0.141079 1106:0.06931 1119:0.196404 1125:0.0733057 1241:0.022633 1243:0.647303 1261:0.0578147 1270:0.196404 1401:0.022633 1433:0.0698479 1440:0.196404 1453:0.0578147 1506:0.022633 1562:0.0698479 1564:0.0733057 1572:0.0871369 1573:0.0578147 1602:0.0543675 1643:0.06639 1668:0.06931 1704:0.068119 1741:0.06639 1752:0.0698479 1773:0.122407 1787:0.028527 1794:0.0999802 1796:0.022633 1839:0.435685 
128.0 128.0 128.0 128.0 128.0 128.0 128.0 128.0 128.0 28:0.0185412 58:0.158334 60:0.0169112 74:0.0215603 77:0.019571 86:0.0369804 106:0.0288397 115:0.0476773 119:0.0114303 127:0.0136512 131:0.0400089 151:0.0880196 154:0.0257742 174:0.0959658 177:0.0270986 184:0.0550886 226:0.158334 228:0.0880196 262:0.0959658 267:0.115526 288:0.0283793 331:0.0169112 368:0.0114303 373:0.0320905 378:0.0182501 413:0.0136512 427:0.158334 439:0.0400089 446:0.0550886 455:0.0443918 486:0.0169112 493:0.0185994 523:0.10055 526:0.0200693 533:0.042176 546:0.0185412 559:0.144499 560:0.225383 635:0.0200693 657:0.0880196 660:0.0169112 674:0.125611 679:0.056584 687:0.158334 689:0.0283793 696:0.0211644 719:0.0476773 740:0.0562784 755:0.0825183 756:0.145541 757:0.0257742 762:0.19835 764:0.0401385 765:0.187449 769:0.0400089 770:0.0877139 772:0.0533822 773:0.0327628 795:0.0476773 799:0.0185994 801:0.016591 809:0.0415648 812:0.0488998 821:0.0211644 828:0.0169112 830:0.0200693 856:0.144499 866:0.019571 894:0.0369804 900:0.0283793 901:0.0443918 904:0.0514806 914:0.0443765 926:0.0562784 929:0.0550886 934:0.0320905 938:0.158334 945:0.0283793 946:0.0400089 962:0.056584 973:0.0270986 974:0.0288397 975:0.125611 977:0.0251834 978:0.0735719 982:0.0200693 986:0.0185994 992:0.0825183 1028:0.0211644 1031:0.0169112 1040:0.0550886 1041:0.19835 1044:0.10055 1046:0.0114303 1047:0.044621 1058:0.145541 1060:0.0641809 1073:0.158334 1074:0.177873 1082:0.144499 1104:0.0397311 1108:0.0489938 1113:0.149756 1131:0.0270986 1144:0.158334 1146:0.0283793 1184:0.0215603 1199:0.0369804 1202:0.125611 1217:0.0169112 1233:0.10055 1241:0.0400089 1291:0.0185412 1328:0.0169112 1334:0.0211644 1335:0.0185412 1346:0.158334 1355:0.0168093 1390:0.0270986 1401:0.0400089 1443:0.0550886 1444:0.0476773 1450:0.0369804 1487:0.0257742 1494:0.0185412 1496:0.0415648 1498:0.0825183 1503:0.0369804 1505:0.0320905 1506:0.0400089 1510:0.0114303 1516:0.0733496 1518:0.0136512 1521:0.19835 1524:0.145541 1529:0.0401385 1546:0.0200693 1547:0.0185994 1554:0.0169112 1558:0.0533822 1560:0.0215603 1561:0.0488998 1568:0.158334 1572:0.115526 1575:0.259131 1594:0.0270986 1598:0.0953545 1607:0.0550886 1615:0.042176 1626:0.0327628 1629:0.0443918 1633:0.0641809 1636:0.0514806 1648:0.019571 1658:0.0877139 1663:0.144499 1694:0.0136512 1722:0.0185412 1734:0.0211644 1749:0.0114303 1760:0.0200693 1774:0.0185994 1796:0.0400089 1803:0.0369804 1848:0.0169112 1856:0.0663203 1859:0.158334 
128.0 128.0 87.6084938932144 128.0 128.0 128.0 128.0 128.0 128.0 1:0.169868 2:0.0857143 6:0.0882353 23:0.183754 24:0.0335334 27:0.045018 33:0.0390509 40:0.0806723 56:0.044898 58:0.217676 60:0.0464986 64:0.0787515 74:0.296409 75:0.552941 93:0.281131 175:0.0512605 226:0.217676 294:0.0512605 301:0.044898 331:0.0464986 427:0.217676 469:0.110084 486:0.0464986 492:0.0806723 513:0.0390509 520:0.045018 621:0.044898 660:0.0464986 687:0.217676 744:0.285154 774:0.110084 786:0.0787515 828:0.0464986 846:0.0390509 885:0.044898 891:0.092437 938:0.217676 1031:0.0464986 1069:0.044898 1073:0.217676 1139:0.0806723 1144:0.217676 1147:0.106443 1156:0.044898 1184:0.296409 1217:0.0464986 1242:0.110084 1282:0.0761905 1293:0.045018 1298:0.0806723 1301:0.045018 1328:0.0464986 1333:0.0390509 1342:0.0857143 1346:0.217676 1352:0.044898 1436:0.110084 1465:0.190756 1509:0.110084 1533:0.0390509 1541:0.0882353 1554:0.0464986 1560:0.296409 1568:0.217676 1597:0.092437 1614:0.0335334 1616:0.0787515 1644:0.044898 1703:0.0806723 1708:0.110084 1713:0.0882353 1727:0.0787515 1758:0.044898 1802:0.092437 1817:0.106443 1848:0.0464986 1859:0.217676 
128.0 128.0 128.0 128.0 128.0 128.0 111.1768794881983 128.0 128.0 41:0.124515 107:0.112403 108:0.132976 119:0.289922 133:0.0973299 142:0.312016 148:0.816537 149:0.0946844 297:0.247093 341:0.156008 343:0.132976 368:0.289922 414:0.124515 422:0.0973299 470:0.112403 495:0.0946844 505:0.312016 507:0.156008 592:0.112403 631:0.0973299 663:0.247093 726:0.132976 736:0.156008 797:0.112403 810:0.312016 840:0.247093 850:0.156008 859:0.0973299 902:0.0946844 952:0.112403 1046:0.289922 1051:0.0946844 1083:0.312016 1088:0.0973299 1112:0.132976 1155:0.112403 1190:0.0973299 1275:0.125969 1354:0.112403 1394:0.0973299 1397:0.156008 1417:0.312016 1452:0.124515 1470:0.0946844 1489:0.0973299 1510:0.289922 1542:0.125969 1563:0.156008 1578:0.312016 1613:0.0946844 1627:0.112403 1749:0.289922 1815:0.0973299 1824:0.112403 1825:0.156008 
0.0 0.0 0.0 33.721856043346236 58.57893359512465 0.0 39.39823402448988 128.0 128.0 2:0.575621 6:0.0395034 8:0.254757 12:0.24605 24:0.0900785 43:0.124974 88:0.0812641 117:0.0766419 119:0.0422122 127:0.0504138 179:0.0880361 275:0.250564 332:0.0914221 368:0.0422122 399:0.254757 413:0.0504138 493:0.137375 526:0.0741159 537:0.0914221 577:0.124974 635:0.0741159 714:0.401806 722:0.0880361 799:0.137375 817:0.0880361 824:0.254757 830:0.0741159 857:0.190068 982:0.0741159 986:0.137375 1045:0.401806 1046:0.0422122 1059:0.390519 1228:0.0880361 1253:0.254757 1302:0.254757 1342:0.575621 1368:0.0812641 1374:0.124974 1398:0.0880361 1432:0.190068 1479:0.254757 1481:0.0766419 1490:0.379233 1510:0.0422122 1518:0.0504138 1541:0.0395034 1546:0.0741159 1547:0.137375 1552:0.0914221 1582:0.15237 1614:0.0900785 1662:0.0880361 1669:0.0845409 1671:0.0583145 1674:0.731377 1694:0.0504138 1696:0.254757 1701:0.0812641 1713:0.0395034 1749:0.0422122 1760:0.0741159 1774:0.137375 1801:0.401806 1809:0.0880361 1856:0.244921 
128.0 128.0 128.0 128.0 128.0 128.0 128.0 128.0 128.0 2:0.177083 24:0.207837 77:0.222348 133:0.348765 144:0.18254 422:0.348765 512:0.18254 631:0.348765 750:0.154514 822:0.154514 859:0.348765 866:0.222348 957:0.18254 1017:0.154514 1088:0.348765 1160:0.18254 1190:0.348765 1342:0.177083 1394:0.348765 1489:0.348765 1614:0.207837 1639:0.18254 1648:0.222348 1717:0.154514 1815:0.348765 
0.0 62.270238923779814 0.0 51.668059733716376 21.268522737540597 42.30161634383769 6.547498431798662 49.60870734565331 29.964096989839586 28:0.126389 30:1.0 46:0.294444 58:0.179885 103:0.168333 112:0.300694 123:0.116667 127:0.372222 131:0.0681818 168:0.298915 181:0.164167 226:0.179885 413:0.372222 418:0.125 419:0.168333 427:0.179885 432:0.116667 439:0.0681818 468:0.298915 469:0.545833 508:0.219792 530:0.300694 546:0.126389 672:1.0 687:0.179885 694:0.294444 716:0.168333 746:0.125 769:0.0681818 774:0.545833 782:0.116667 794:1.0 827:0.433333 854:0.298915 861:0.168333 877:0.300694 882:0.125 892:0.285417 904:0.350926 938:0.179885 946:0.0681818 1035:0.4 1036:0.116667 1039:1.0 1053:0.298915 1073:0.179885 1099:0.168333 1101:0.300694 1102:0.125 1144:0.179885 1182:0.116667 1219:0.168333 1221:0.300694 1222:0.341667 1230:0.164167 1241:0.0681818 1242:0.545833 1291:0.126389 1335:0.126389 1346:0.179885 1357:0.116667 1381:0.168333 1401:0.0681818 1422:0.300694 1436:0.545833 1437:0.294444 1460:1.0 1494:0.126389 1506:0.0681818 1509:0.545833 1516:1.0 1518:0.372222 1545:0.433333 1568:0.179885 1571:0.300694 1624:0.116667 1636:0.350926 1643:1.0 1647:0.294444 1651:0.298915 1657:0.168333 1694:0.372222 1708:0.545833 1722:0.126389 1741:1.0 1763:0.285417 1796:0.0681818 1813:0.168333 1836:0.116667 1842:0.608333 1859:0.179885 
0.0 0.0 0.0 25.19467592179229 19.711011960035083 0.0 0.0 40.68646784006178 0.0 3:0.308869 12:1.0 19:0.260321 24:0.305082 28:0.0927625 77:0.0979149 90:0.283384 91:0.0642202 112:0.220693 131:0.0500417 163:0.0622365 179:0.119266 181:0.361468 391:0.0642202 435:0.283384 439:0.0500417 530:0.220693 546:0.0927625 548:0.274006 649:0.260321 722:0.119266 751:1.0 769:0.0500417 791:0.260321 817:0.119266 819:0.274006 864:0.283384 866:0.0979149 877:0.220693 923:1.0 946:0.0500417 984:0.309305 989:0.269495 1101:0.220693 1108:0.490238 1164:0.283384 1221:0.220693 1228:0.119266 1230:0.361468 1241:0.0500417 1245:0.269495 1249:0.274006 1254:0.260321 1280:1.0 1291:0.0927625 1335:0.0927625 1398:0.119266 1401:0.0500417 1422:0.220693 1423:0.283384 1433:0.308869 1483:0.274006 1494:0.0927625 1500:0.283384 1506:0.0500417 1538:0.260321 1562:0.308869 1571:0.220693 1614:0.305082 1648:0.0979149 1662:0.119266 1679:0.0622365 1722:0.0927625 1746:0.274006 1750:0.394495 1752:0.308869 1753:0.260321 1796:0.0500417 1809:0.119266 
44.79898290955036 34.29196533543794 85.49389938003529 93.45432712562653 89.45157243191179 27.120163407991132 128.0 126.61909145524704 41.6706219584751 1:0.0222379 2:0.0841584 5:0.12482 7:0.122387 9:0.027136 10:0.152182 17:0.107077 18:0.132357 21:0.080308 34:0.200559 37:0.0622173 38:0.0618812 40:0.0528053 46:0.0388706 51:0.0880088 55:0.346535 59:0.100477 65:0.0270313 88:0.118812 95:0.145215 105:0.155823 129:0.19692 135:0.135314 140:0.171617 143:0.0761276 183:0.150244 184:0.198295 186:0.09956 189:1.0 337:0.152182 361:0.155823 431:0.0715072 446:0.198295 464:0.122387 492:0.0528053 514:0.152182 529:0.0776363 554:0.155823 562:0.0792079 564:0.0317657 581:0.152182 583:0.155823 591:0.0270313 598:0.0935094 626:0.135314 639:0.0622173 667:0.0880088 694:0.0388706 695:0.107077 715:0.0761276 723:0.050055 777:0.155823 783:0.0270313 886:0.0792079 891:0.0605061 896:0.152182 929:0.198295 940:0.145215 1040:0.198295 1057:0.145215 1108:0.0881781 1139:0.0528053 1157:0.122387 1289:0.107077 1292:0.0270313 1298:0.0528053 1299:0.122387 1308:0.152182 1319:0.135314 1321:0.135314 1330:0.346535 1337:0.150244 1339:0.0711404 1342:0.0841584 1349:0.107077 1368:0.118812 1379:0.0270313 1406:0.155823 1410:0.09956 1431:0.0761276 1437:0.0388706 1443:0.198295 1461:0.119912 1472:0.146865 1474:0.145215 1499:0.155823 1508:0.152182 1519:0.122387 1574:0.0792079 1583:0.132357 1590:0.12482 1597:0.0605061 1599:0.113311 1607:0.198295 1623:0.0270313 1625:0.145215 1647:0.0388706 1649:0.119912 1685:0.122387 1701:0.118812 1703:0.0528053 1704:0.108361 1748:0.346535 1770:0.0572057 1775:0.0792079 1784:0.152182 1792:0.145215 1802:0.0605061 1850:0.0354235 1853:0.0622173 1854:0.050055 
0.0 0.0 0.0 0.0 0.0 0.0 0.0 0.0 81.86441733387973 3:0.520261 6:0.0240385 7:0.0611264 10:0.0760073 18:0.0165264 19:0.11693 26:0.0865385 29:0.0857753 30:0.542986 33:0.0319166 35:0.018342 37:0.0776862 39:0.101543 50:0.122482 54:0.0659341 60:0.114011 87:0.0742815 103:0.0554945 107:0.119505 112:0.29739 127:0.337454 132:0.136447 133:0.137973 134:0.0415806 138:0.420482 154:0.0289606 157:0.0943223 162:0.0505952 168:0.29563 183:0.187598 243:0.0659341 331:0.114011 337:0.0760073 338:0.0918367 371:0.0535714 413:0.337454 415:0.018342 419:0.0554945 422:0.137973 464:0.0611264 468:0.29563 470:0.119505 475:0.0918367 486:0.114011 513:0.0319166 514:0.0760073 530:0.29739 562:0.197802 581:0.0760073 592:0.119505 631:0.137973 639:0.0776862 649:0.11693 660:0.114011 672:0.542986 683:0.420482 716:0.0554945 729:0.147436 751:0.0898352 757:0.0289606 791:0.11693 794:0.131868 797:0.119505 802:0.420482 808:0.0535714 815:0.147436 827:0.142857 828:0.114011 841:0.188187 846:0.0319166 854:0.29563 859:0.137973 861:0.0554945 877:0.29739 886:0.197802 896:0.0760073 923:0.0898352 930:0.116758 952:0.119505 954:0.420482 972:0.0742815 1031:0.114011 1039:0.131868 1047:0.100275 1053:0.29563 1088:0.137973 1099:0.0554945 1101:0.29739 1117:0.147436 1155:0.119505 1157:0.0611264 1169:0.0742815 1190:0.137973 1205:0.420482 1217:0.114011 1219:0.0554945 1221:0.29739 1243:0.0918367 1246:0.0505952 1254:0.11693 1279:0.228022 1299:0.0611264 1308:0.0760073 1328:0.114011 1333:0.0319166 1337:0.187598 1354:0.119505 1372:0.0865385 1381:0.0554945 1382:0.122482 1383:0.0857753 1394:0.137973 1408:0.420482 1420:0.101543 1422:0.29739 1433:0.520261 1460:0.542986 1463:0.0659341 1487:0.0289606 1489:0.137973 1508:0.0760073 1517:0.0865385 1518:0.337454 1519:0.0611264 1531:0.122482 1533:0.0319166 1538:0.11693 1541:0.0240385 1545:0.142857 1550:0.018342 1554:0.114011 1556:0.0535714 1562:0.520261 1571:0.29739 1574:0.197802 1581:0.420482 1583:0.0165264 1591:0.147436 1627:0.119505 1643:0.131868 1651:0.29563 1657:0.0554945 1685:0.0611264 1688:0.0415806 1691:0.136447 1694:0.337454 1704:0.0676511 1711:0.420482 1713:0.0240385 1741:0.131868 1752:0.520261 1753:0.11693 1775:0.197802 1784:0.0760073 1795:0.0661303 1797:0.0934066 1813:0.0554945 1815:0.137973 1824:0.119505 1833:0.0865385 1837:0.0659341 1848:0.114011 1851:0.147436 1853:0.0776862 
63.403309106854934 4.1541696769853 49.06579257613376 47.44949526533106 97.22344314907316 33.770695993107985 2.777643636283695 50.916996864553546 2.113707945218272 1:0.0944593 10:0.129283 19:0.132593 21:0.341121 31:0.103882 34:0.425953 36:0.558671 87:0.252696 96:1.0 102:0.408545 110:1.0 131:0.0764656 163:0.0950998 337:0.129283 341:0.188084 439:0.0764656 507:0.188084 514:0.129283 548:0.209346 558:0.103882 572:0.103882 581:0.129283 649:0.132593 659:0.497196 736:0.188084 769:0.0764656 791:0.132593 819:0.209346 850:0.188084 896:0.129283 941:0.103882 946:0.0764656 972:0.252696 1169:0.252696 1208:0.234424 1241:0.0764656 1249:0.209346 1254:0.132593 1294:0.104673 1308:0.129283 1317:0.103882 1397:0.188084 1401:0.0764656 1483:0.209346 1506:0.0764656 1508:0.129283 1538:0.132593 1563:0.188084 1679:0.0950998 1746:0.209346 1753:0.132593 1784:0.129283 1796:0.0764656 1825:0.188084 1843:0.104673 1857:0.103882 
0.0 3.251897877293503 0.0 0.0 0.0 90.09900290803445 127.10500974251387 0.0 92.25573985787832 4:0.160967 7:0.209906 40:0.679245 58:0.203643 59:0.861635 85:0.284591 99:0.289832 226:0.203643 402:0.160967 427:0.203643 464:0.209906 492:0.679245 687:0.203643 742:0.289832 938:0.203643 1073:0.203643 1139:0.679245 1144:0.203643 1157:0.209906 1168:0.160967 1266:0.284591 1298:0.679245 1299:0.209906 1303:0.160967 1346:0.203643 1393:1.0 1399:0.284591 1519:0.209906 1568:0.203643 1600:0.160967 1605:0.627359 1685:0.209906 1703:0.679245 1724:0.160967 1859:0.203643 
0.0 0.0 0.0 0.0 1.7625586680500722 0.0 0.0 18.84976395316583 0.0 3:0.384239 5:0.147993 18:0.156929 29:0.135749 44:0.134161 58:0.0938531 73:0.471429 85:0.131159 90:0.100725 93:1.0 106:0.102569 108:0.0745819 138:0.133092 168:0.311911 226:0.0938531 267:0.136957 343:0.0745819 360:0.116087 427:0.0938531 435:0.100725 468:0.311911 683:0.133092 687:0.0938531 726:0.0745819 794:0.313043 802:0.133092 854:0.311911 864:0.100725 938:0.0938531 939:0.145652 954:0.133092 974:0.102569 1039:0.313043 1053:0.311911 1059:0.376087 1060:0.228261 1062:0.617754 1073:0.0938531 1112:0.0745819 1144:0.0938531 1164:0.100725 1205:0.133092 1266:0.131159 1346:0.0938531 1383:0.135749 1399:0.131159 1408:0.133092 1423:0.100725 1433:0.384239 1500:0.100725 1562:0.384239 1568:0.0938531 1572:0.136957 1581:0.133092 1583:0.156929 1590:0.147993 1603:0.145652 1633:0.228261 1643:0.313043 1651:0.311911 1677:0.0664596 1704:0.107065 1711:0.133092 1741:0.313043 1750:0.280435 1752:0.384239 1755:0.186216 1793:0.145652 1794:0.471429 1842:0.317391 1859:0.0938531 
0.0 0.0 0.0 0.0 0.0 0.0 0.0 0.0 6.988804080040627 6:0.0972222 20:0.403175 21:0.811111 26:0.35 52:0.302381 74:0.391919 88:1.0 92:1.0 97:0.188889 116:0.275694 139:0.477778 187:0.172222 549:0.275694 610:0.275694 630:0.188889 932:0.188889 1086:0.275694 1098:0.302381 1183:0.188889 1184:0.391919 1234:0.302381 1313:0.172222 1368:1.0 1372:0.35 1376:0.188889 1469:0.403175 1517:0.35 1522:0.302381 1534:0.188889 1541:0.0972222 1560:0.391919 1690:0.275694 1701:1.0 1713:0.0972222 1716:0.188889 1726:0.302381 1736:0.377778 1738:0.403175 1833:0.35 
0.0 7.501470173276657 23.92420778525922 63.76364137145179 0.0 0.0 105.9018076536932 0.0 0.0 4:0.0414138 7:0.162015 17:0.708738 20:0.0440361 36:0.507821 47:0.112549 50:0.432848 60:0.0671521 83:0.183363 96:0.259709 100:0.21966 130:0.574029 139:0.208738 142:0.195388 143:0.167961 146:0.0961435 187:0.0752427 275:0.269417 292:0.112549 331:0.0671521 347:0.0961435 402:0.0414138 464:0.162015 486:0.0671521 505:0.195388 596:0.0961435 609:0.112549 660:0.0671521 680:0.171926 695:0.708738 715:0.167961 747:0.183363 810:0.195388 828:0.0671521 855:0.167476 881:0.173948 1031:0.0671521 1083:0.195388 1091:0.112549 1157:0.162015 1168:0.0414138 1192:0.171926 1217:0.0671521 1286:0.112549 1289:0.708738 1299:0.162015 1303:0.0414138 1313:0.0752427 1328:0.0671521 1349:0.708738 1371:0.104369 1375:0.56068 1382:0.432848 1409:0.0961435 1417:0.195388 1429:0.112549 1431:0.167961 1469:0.0440361 1519:0.162015 1531:0.432848 1554:0.0671521 1569:0.0961435 1578:0.195388 1600:0.0414138 1606:0.167476 1674:0.098301 1685:0.162015 1707:0.173948 1724:0.0414138 1725:0.0788835 1738:0.0440361 1756:0.167476 1776:0.183363 1848:0.0671521 
0.0 0.0 0.0 0.0 0.0 0.0 0.0 29.64132328906976 0.0 4:0.0669118 7:0.0872549 8:0.0885154 10:0.108497 14:0.308296 20:0.0711485 26:0.494118 27:0.105042 31:0.174359 116:0.583824 139:0.337255 150:0.214118 187:0.121569 337:0.108497 399:0.0885154 402:0.0669118 459:0.214118 464:0.0872549 514:0.108497 520:0.105042 549:0.583824 558:0.174359 572:0.174359 581:0.108497 610:0.583824 824:0.0885154 896:0.108497 935:0.214118 941:0.174359 1086:0.583824 1157:0.0872549 1168:0.0669118 1253:0.0885154 1293:0.105042 1299:0.0872549 1301:0.105042 1302:0.0885154 1303:0.0669118 1308:0.108497 1313:0.121569 1317:0.174359 1347:0.214118 1372:0.494118 1393:0.138562 1469:0.0711485 1479:0.0885154 1508:0.108497 1517:0.494118 1519:0.0872549 1600:0.0669118 1602:0.308296 1685:0.0872549 1690:0.583824 1696:0.0885154 1724:0.0669118 1738:0.0711485 1780:0.34902 1784:0.108497 1833:0.494118 1857:0.174359 
0.0 0.0 0.0 7.272555134186404 0.0 0.0 0.0 0.0 0.0 4:0.0584332 5:0.23314 8:0.0772994 26:0.215753 27:0.550391 31:0.0761328 41:0.110017 47:0.158803 54:0.328767 65:0.420744 90:0.158676 139:0.294521 151:0.493151 187:0.106164 218:0.0956515 228:0.493151 243:0.328767 292:0.158803 399:0.0772994 402:0.0584332 414:0.110017 435:0.158676 510:0.349315 520:0.550391 526:0.224886 558:0.0761328 572:0.0761328 588:0.422701 591:0.420744 609:0.158803 633:0.219178 635:0.224886 657:0.493151 706:0.0956515 783:0.420744 824:0.0772994 830:0.224886 864:0.158676 887:0.349315 892:0.703767 941:0.0761328 982:0.224886 1091:0.158803 1093:0.349315 1164:0.158676 1168:0.0584332 1253:0.0772994 1286:0.158803 1292:0.420744 1293:0.550391 1301:0.550391 1302:0.0772994 1303:0.0584332 1313:0.106164 1317:0.0761328 1372:0.215753 1379:0.420744 1423:0.158676 1429:0.158803 1452:0.110017 1463:0.328767 1479:0.0772994 1500:0.158676 1517:0.215753 1546:0.224886 1590:0.23314 1600:0.0584332 1623:0.420744 1696:0.0772994 1724:0.0584332 1760:0.224886 1763:0.703767 1833:0.215753 1837:0.328767 1857:0.0761328 
0.0 0.0 0.0 0.0 0.0 10.840519043162399 1.8747464434188965 0.0 0.0 1:0.0684071 2:0.0431472 4:0.0577411 6:0.118443 7:0.225888 17:0.247039 20:0.0920957 21:0.494078 27:0.0453227 40:0.121827 41:0.054357 48:0.251692 50:0.150874 52:0.0920957 62:0.97313 88:0.304569 90:0.156796 95:0.111675 112:0.122109 119:0.0316413 127:0.113367 134:0.0512194 139:0.145516 141:0.153299 170:0.139594 178:0.106599 187:0.0524535 350:0.213198 368:0.0316413 402:0.0577411 413:0.113367 414:0.054357 435:0.156796 458:0.139594 464:0.225888 492:0.121827 520:0.0453227 530:0.122109 671:0.97313 695:0.247039 864:0.156796 877:0.122109 940:0.111675 1046:0.0316413 1057:0.111675 1096:0.251692 1098:0.0920957 1101:0.122109 1139:0.121827 1157:0.225888 1164:0.156796 1168:0.0577411 1210:0.251692 1221:0.122109 1234:0.0920957 1267:0.139594 1282:0.0767062 1289:0.247039 1293:0.0453227 1298:0.121827 1299:0.225888 1301:0.0453227 1303:0.0577411 1313:0.0524535 1342:0.0431472 1349:0.247039 1368:0.304569 1371:0.072758 1382:0.150874 1422:0.122109 1423:0.156796 1438:0.139594 1452:0.054357 1469:0.0920957 1474:0.111675 1500:0.156796 1510:0.0316413 1518:0.113367 1519:0.225888 1522:0.0920957 1531:0.150874 1541:0.118443 1571:0.122109 1600:0.0577411 1625:0.111675 1640:0.139594 1681:0.106599 1682:0.102973 1685:0.225888 1688:0.0512194 1692:0.104729 1694:0.113367 1698:0.109983 1701:0.304569 1703:0.121827 1713:0.118443 1724:0.0577411 1726:0.0920957 1738:0.0920957 1749:0.0316413 1778:0.139594 1788:0.131416 1792:0.111675 
0.0 36.7387686150548 18.42513795342548 0.0 0.0 0.0 24.55342290862929 35.183944159160916 7.804932238066439 1:0.162147 4:0.136865 5:0.0606746 6:0.187166 7:0.059492 10:0.2959 37:0.151218 44:0.165011 46:0.0944742 65:0.065699 71:0.270053 74:0.0943121 81:1.0 90:0.123886 105:0.126241 111:0.14238 117:0.181564 132:0.0885324 139:0.229947 156:0.247018 171:0.343583 174:0.419786 179:0.208556 187:0.0828877 262:0.419786 337:0.2959 361:0.126241 376:0.247018 402:0.136865 435:0.123886 464:0.059492 472:1.0 514:0.2959 554:0.126241 581:0.2959 583:0.126241 591:0.065699 593:0.0448375 600:0.395722 639:0.151218 659:0.568984 694:0.0944742 722:0.208556 732:1.0 777:0.126241 783:0.065699 817:0.208556 864:0.123886 896:0.2959 906:1.0 1049:0.0448375 1157:0.059492 1164:0.123886 1165:1.0 1168:0.136865 1184:0.0943121 1200:0.0448375 1228:0.208556 1274:0.312834 1292:0.065699 1299:0.059492 1303:0.136865 1308:0.2959 1313:0.0828877 1379:0.065699 1398:0.208556 1400:1.0 1406:0.126241 1423:0.123886 1437:0.0944742 1441:0.247018 1462:0.270053 1481:0.181564 1499:0.126241 1500:0.123886 1508:0.2959 1519:0.059492 1541:0.187166 1557:1.0 1560:0.0943121 1576:0.312834 1586:0.269385 1590:0.0606746 1600:0.136865 1623:0.065699 1647:0.0944742 1662:0.208556 1685:0.059492 1691:0.0885324 1713:0.187166 1724:0.136865 1784:0.2959 1809:0.208556 1853:0.151218 
0.0 0.0 0.0 0.0 45.20695467162118 9.151810825685258 35.79473319683204 103.76792160375932 113.30192123013917 4:0.0323767 5:0.0430594 7:0.16888 9:0.0468058 10:0.104997 18:0.0228297 26:0.358634 28:0.172676 29:0.355471 35:0.329389 43:0.105054 46:0.0670462 47:0.0879893 51:0.151803 52:0.137707 64:0.088913 65:0.0466251 88:0.136622 90:0.087919 92:0.113852 97:0.0645161 116:0.0941651 121:0.163188 138:0.116171 139:0.163188 143:0.131309 144:0.099756 146:0.0751634 183:0.259149 187:0.0588235 292:0.0879893 337:0.104997 346:0.149905 347:0.0751634 402:0.0323767 415:0.329389 435:0.087919 464:0.16888 512:0.099756 514:0.104997 546:0.172676 549:0.0941651 577:0.105054 581:0.104997 591:0.0466251 596:0.0751634 609:0.0879893 610:0.0941651 630:0.0645161 683:0.116171 694:0.0670462 715:0.131309 718:0.499051 783:0.0466251 786:0.088913 802:0.116171 864:0.087919 896:0.104997 932:0.0645161 954:0.116171 957:0.099756 1014:0.344086 1015:0.149905 1059:0.328273 1086:0.0941651 1091:0.0879893 1098:0.137707 1157:0.16888 1160:0.099756 1164:0.087919 1168:0.0323767 1183:0.0645161 1205:0.116171 1234:0.137707 1286:0.0879893 1291:0.172676 1292:0.0466251 1299:0.16888 1303:0.0323767 1308:0.104997 1313:0.0588235 1335:0.172676 1337:0.259149 1361:0.163188 1368:0.136622 1371:0.0815939 1372:0.358634 1374:0.105054 1376:0.0645161 1379:0.0466251 1383:0.355471 1408:0.116171 1409:0.0751634 1423:0.087919 1429:0.0879893 1431:0.131309 1437:0.0670462 1494:0.172676 1500:0.087919 1508:0.104997 1517:0.358634 1519:0.16888 1522:0.137707 1534:0.0645161 1550:0.329389 1569:0.0751634 1575:0.0893817 1581:0.116171 1583:0.0228297 1590:0.0430594 1600:0.0323767 1616:0.088913 1623:0.0466251 1639:0.099756 1645:0.214421 1647:0.0670462 1654:0.163188 1675:0.344086 1676:0.112745 1685:0.16888 1690:0.0941651 1701:0.136622 1711:0.116171 1716:0.0645161 1722:0.172676 1724:0.0323767 1726:0.137707 1727:0.088913 1732:0.214421 1784:0.104997 1826:0.163188 1833:0.358634 
21.392496185669888 53.045509229051575 12.54863488555969 128.0 23.001673228837802 5.522869141584338 12.042933130204036 128.0 22.105951979750678 3:0.0273268 4:0.0184659 6:0.0189394 12:0.117965 19:0.0307089 20:0.0196351 24:0.539837 28:0.0984848 40:0.025974 46:0.0382395 47:0.0501844 52:0.0785405 65:0.0265925 71:0.109307 86:0.0654762 95:0.0714286 108:0.259907 113:0.177489 117:0.110235 133:0.0543531 153:0.102273 154:0.0456349 156:0.0499917 161:0.104978 191:0.12214 255:0.257215 292:0.0501844 327:0.0525384 332:0.131494 343:0.259907 373:0.170455 376:0.0499917 402:0.0184659 422:0.0543531 492:0.025974 533:0.149351 537:0.131494 546:0.0984848 591:0.0265925 609:0.0501844 631:0.0543531 649:0.0307089 694:0.0382395 726:0.259907 757:0.0456349 770:0.103535 775:0.0696248 783:0.0265925 791:0.0307089 793:0.12214 800:0.0525384 809:0.0735931 855:0.0746753 859:0.0543531 880:1.0 881:0.0775613 888:0.13925 891:0.0595238 894:0.0654762 903:0.0844156 915:0.243506 925:0.0765901 934:0.170455 940:0.0714286 993:0.0702827 1057:0.0714286 1088:0.0543531 1091:0.0501844 1098:0.0785405 1112:0.259907 1139:0.025974 1168:0.0184659 1190:0.0543531 1199:0.0654762 1234:0.0785405 1235:0.0702827 1254:0.0307089 1275:0.0351732 1286:0.0501844 1291:0.0984848 1292:0.0265925 1298:0.025974 1303:0.0184659 1335:0.0984848 1379:0.0265925 1384:0.0702827 1394:0.0543531 1413:0.0562771 1429:0.0501844 1433:0.0273268 1437:0.0382395 1441:0.0499917 1450:0.0654762 1462:0.109307 1469:0.0196351 1474:0.0714286 1478:0.12214 1480:0.0525384 1481:0.110235 1487:0.0456349 1488:0.364842 1489:0.0543531 1492:0.103896 1494:0.0984848 1496:0.0735931 1503:0.0654762 1505:0.170455 1522:0.0785405 1523:0.13925 1538:0.0307089 1541:0.0189394 1542:0.0351732 1552:0.131494 1559:1.0 1562:0.0273268 1597:0.0595238 1600:0.0184659 1606:0.0746753 1611:0.102273 1614:0.539837 1615:0.149351 1623:0.0265925 1625:0.0714286 1628:1.0 1638:0.0702827 1647:0.0382395 1658:0.103535 1665:0.0696248 1699:0.0963203 1703:0.025974 1707:0.0775613 1713:0.0189394 1722:0.0984848 1724:0.0184659 1726:0.0785405 1733:0.102273 1738:0.0196351 1752:0.0273268 1753:0.0307089 1756:0.0746753 1777:0.0702827 1792:0.0714286 1802:0.0595238 1803:0.0654762 1815:0.0543531 
128.0 128.0 128.0 128.0 128.0 128.0 128.0 128.0 117.27725414464182 52:0.0982465 65:0.221764 85:0.43562 157:0.123947 191:0.0407427 236:0.236462 528:0.203971 591:0.221764 783:0.221764 793:0.0407427 855:0.249097 1098:0.0982465 1159:0.25361 1161:0.109206 1234:0.0982465 1266:0.43562 1292:0.221764 1379:0.221764 1399:0.43562 1478:0.0407427 1488:0.0869298 1501:0.192238 1522:0.0982465 1606:0.249097 1623:0.221764 1726:0.0982465 1756:0.249097 1770:0.0938628 1789:0.137442 
128.0 128.0 128.0 107.59849177878436 128.0 128.0 128.0 108.3899486533981 83.01779953369892 4:0.0639045 58:0.161694 87:0.202535 107:0.108614 122:0.156554 123:0.104869 188:0.194757 226:0.161694 288:0.17389 402:0.0639045 406:0.156554 427:0.161694 432:0.104869 470:0.108614 592:0.108614 623:0.194757 642:0.156554 687:0.161694 689:0.17389 782:0.104869 797:0.108614 865:0.0661673 889:0.194757 900:0.17389 938:0.161694 945:0.17389 950:0.0916456 952:0.108614 972:0.202535 994:0.0661673 1036:0.104869 1048:0.194757 1073:0.161694 1144:0.161694 1145:0.370787 1146:0.17389 1153:0.194757 1155:0.108614 1168:0.0639045 1169:0.202535 1182:0.104869 1187:0.0661673 1194:0.0916456 1261:0.156554 1303:0.0639045 1346:0.161694 1354:0.108614 1357:0.104869 1360:0.447191 1380:0.230337 1453:0.156554 1472:1.0 1568:0.161694 1573:0.156554 1600:0.0639045 1624:0.104869 1627:0.108614 1724:0.0639045 1824:0.108614 1836:0.104869 1842:0.546816 1859:0.161694 
0.0 0.0 0.0 0.0 0.0 63.03421904281078 24.513829923897443 0.0 0.0 3:0.298817 12:0.967456 19:0.251849 24:0.295154 28:0.0897436 58:0.127729 77:0.0947283 90:0.274162 91:0.0621302 112:0.213511 131:0.0484131 163:0.0602111 179:0.115385 181:0.349704 226:0.127729 391:0.0621302 427:0.127729 435:0.274162 439:0.0484131 530:0.213511 546:0.0897436 548:0.265089 649:0.251849 687:0.127729 722:0.115385 751:0.967456 769:0.0484131 791:0.251849 817:0.115385 819:0.265089 864:0.274162 866:0.0947283 877:0.213511 923:0.967456 938:0.127729 946:0.0484131 984:0.299239 989:0.260725 1073:0.127729 1101:0.213511 1108:0.474283 1144:0.127729 1164:0.274162 1221:0.213511 1228:0.115385 1230:0.349704 1241:0.0484131 1245:0.260725 1249:0.265089 1254:0.251849 1280:0.967456 1291:0.0897436 1335:0.0897436 1346:0.127729 1398:0.115385 1401:0.0484131 1422:0.213511 1423:0.274162 1433:0.298817 1483:0.265089 1494:0.0897436 1500:0.274162 1506:0.0484131 1538:0.251849 1562:0.298817 1568:0.127729 1571:0.213511 1614:0.295154 1648:0.0947283 1662:0.115385 1679:0.0602111 1722:0.0897436 1746:0.265089 1750:0.381657 1752:0.298817 1753:0.251849 1796:0.0484131 1809:0.115385 1859:0.127729 
0.0 86.0186633365594 3.659517157114651 4.213244907671364 59.973609764040596 37.34515766290668 23.813530686671236 36.973481044854964 64.55136153867535 9:0.239482 22:0.196117 35:0.12964 127:0.216828 138:0.59439 144:0.255201 157:1.0 173:0.331715 184:0.4375 332:0.196602 385:0.200896 413:0.216828 415:0.12964 445:0.294498 446:0.4375 512:0.255201 522:0.956311 533:0.334951 537:0.196602 636:0.23301 683:0.59439 802:0.59439 855:0.334951 914:0.176214 929:0.4375 954:0.59439 957:0.255201 977:1.0 1040:0.4375 1043:0.23301 1065:0.200896 1107:0.956311 1160:0.255201 1205:0.59439 1252:0.196117 1336:0.196117 1408:0.59439 1443:0.4375 1518:0.216828 1526:0.200896 1550:0.12964 1552:0.196602 1581:0.59439 1606:0.334951 1607:0.4375 1615:0.334951 1631:0.203883 1639:0.255201 1694:0.216828 1711:0.59439 1756:0.334951 1806:0.196117 
0.0 0.0 65.50445128654547 0.0 0.0 0.0 1.1659458684434847 0.0 0.0 2:0.100196 10:0.271775 12:0.0713818 21:0.286837 25:0.0928836 30:0.221888 35:0.104935 37:1.0 40:0.0471513 47:0.0911009 56:0.0524839 64:0.184115 65:0.0965479 84:0.221022 94:0.0917766 116:0.0974951 127:0.0438769 140:0.306483 163:0.039983 170:0.0810413 244:0.221022 292:0.0911009 301:0.0524839 337:0.271775 413:0.0438769 415:0.104935 458:0.0810413 492:0.0471513 514:0.271775 549:0.0974951 581:0.271775 590:0.14391 591:0.0965479 609:0.0911009 610:0.0974951 621:0.0524839 639:1.0 659:0.209037 672:0.221888 679:0.181869 783:0.0965479 786:0.184115 885:0.0524839 896:0.271775 948:0.0471513 962:0.181869 1069:0.0524839 1086:0.0974951 1091:0.0911009 1139:0.0471513 1156:0.0524839 1179:0.146038 1244:0.0928291 1267:0.0810413 1286:0.0911009 1290:0.0471513 1292:0.0965479 1298:0.0471513 1308:0.271775 1342:0.100196 1352:0.0524839 1369:0.221022 1379:0.0965479 1387:0.0917766 1419:0.146038 1429:0.0911009 1438:0.0810413 1460:0.221888 1508:0.271775 1518:0.0438769 1550:0.104935 1599:0.202358 1616:0.184115 1623:0.0965479 1640:0.0810413 1644:0.0524839 1679:0.039983 1690:0.0974951 1694:0.0438769 1703:0.0471513 1715:0.0917766 1727:0.184115 1758:0.0524839 1772:0.174853 1778:0.0810413 1784:0.271775 1853:1.0 1858:0.560904 
21.76882303402289 0.0 12.618699416020714 0.0 38.257380355611936 71.5864672263354 88.8113341959595 47.650715076141005 103.15817037127982 7:0.166667 21:0.273408 26:0.235955 40:0.539326 48:0.222846 70:1.0 136:0.625468 172:1.0 330:0.322097 455:0.272004 464:0.166667 492:0.539326 668:0.322097 895:0.322097 901:0.272004 1001:1.0 1035:0.359551 1096:0.222846 1139:0.539326 1157:0.166667 1210:0.222846 1283:1.0 1298:0.539326 1299:0.166667 1372:0.235955 1414:1.0 1466:0.0964611 1517:0.235955 1519:0.166667 1528:0.322097 1619:0.0964611 1629:0.272004 1685:0.166667 1703:0.539326 1721:0.0964611 1737:0.333333 1819:1.0 1821:0.322097 1833:0.235955 
15.354787330371249 20.30017832130105 0.0 0.0 0.0 8.331560280241623 65.44877990708962 43.05971740018456 6.7453485750556945 8:0.313492 58:0.599617 127:0.310185 151:1.0 226:0.599617 228:1.0 283:1.0 399:0.313492 413:0.310185 427:0.599617 657:1.0 687:0.599617 824:0.313492 938:0.599617 1073:0.599617 1144:0.599617 1253:0.313492 1275:0.451389 1302:0.313492 1346:0.599617 1479:0.313492 1518:0.310185 1542:0.451389 1568:0.599617 1694:0.310185 1696:0.313492 1859:0.599617 
0.0 6.119868388583874 0.0 0.0 0.0 0.0 12.078268235151565 0.0 0.0 2:0.142458 4:0.285964 5:0.126773 7:0.372905 17:0.815642 27:0.149641 37:0.315953 40:0.134078 46:0.197393 48:0.997207 70:0.497207 127:0.249534 129:1.0 182:0.340782 187:0.173184 202:0.340782 402:0.285964 413:0.249534 464:0.372905 465:0.608939 492:0.134078 520:0.149641 639:0.315953 694:0.197393 695:0.815642 1035:0.536313 1096:0.997207 1139:0.134078 1157:0.372905 1168:0.285964 1210:0.997207 1289:0.815642 1293:0.149641 1298:0.134078 1299:0.372905 1301:0.149641 1303:0.285964 1313:0.173184 1342:0.142458 1349:0.815642 1421:0.340782 1437:0.197393 1468:0.608939 1518:0.249534 1519:0.372905 1590:0.126773 1600:0.285964 1647:0.197393 1660:0.608939 1685:0.372905 1694:0.249534 1703:0.134078 1724:0.285964 1795:0.268955 1853:0.315953 
